tree
version=v4
num_class=1
num_tree_per_iteration=1
label_index=0
max_feature_idx=10
objective=binary sigmoid:1
feature_names=signup_time purchase_time purchase_value age source_Direct source_SEO browser_FireFox browser_IE browser_Opera browser_Safari sex_M
feature_infos=[-1.0741404710395974:1.7301933652938812] [-2.150416258867069:2.8784081854564003] [-1.5370257931862079:6.4494271337908371] [-1.7848824305166029:5.024686653295138] [-0.52105440385601154:1.9192082042636791] [-0.80520537920261259:1.2419517283548911] [-0.4432187325131407:2.2562223269079715] [-0.55505900912874773:1.8016102496375248] [-0.15646845329811951:6.3910646454381324] [-0.43640306078736502:2.2914596387013986] [-1.2001549788964734:0.83327232256777639]
tree_sizes=3115 3504 3508 3512 3510 3523 3509 3507 3524 3490 3522 3516 3513 3499 3529 3496 3532 3508 3524 3522 3520 3498 3560 3483 3543 3477 3487 3565 3563 3522 3504 3465 3559 3463 3534 3485 3541 3475 3483 3470 3533 3471 3456 3510 3473 3485 3556 3517 3490 3533 3474 3475 3533 3507 3512 3543 3518 3475 3469 3542 3541 3452 3469 3511 3449 3488 3435 3543 3455 3507 3554 3541 3429 3489 3531 3480 3481 3497 3534 3553 3457 3537 3522 3492 3444 3494 3481 3549 3544 3522 3474 3438 3516 3537 3508 3499 3507 3463 3468 3509

Tree=0
num_leaves=31
num_cat=0
split_feature=1 0 1 3 3 3 3 3 3 3 3 3 3 3 3 3 3 3 3 3 3 3 3 3 3 3 3 3 3 3
split_gain=51865.1 7182.56 1377.79 541.759 1082.08 440.247 1690.65 488.951 1894.11 582.11 2087.32 606.283 2232.06 682.578 2285.85 751.015 2239.28 629.324 2556.22 838.683 2526.29 796.749 2720.59 893.25 2762.39 875.924 2498.83 875.722 2762.32 919.089
threshold=1.0000000180025095e-35 1.0000000180025095e-35 -1.5218132033266352 -1.6673845822499063 -1.5501555054544187 -1.5500573796208397 -1.4327313262162711 -1.4326556375419424 -1.3153605853589425 -1.3152499135910209 -1.1978691209576817 -1.1978499898021486 -1.0804454668533403 -1.0804173928611973 -0.96361500209803685 -0.96296965243119959 -0.84994794590637757 -0.84562094798924148 -0.72828994739413844 -0.72818778644778892 -0.61466311796119499 -0.61079254214949397 -0.49351745098049571 -0.49338620184465004 -0.37604046081772263 -0.37598982039404399 -0.26196135731644415 -0.2585301746939222 -0.14129625041357127 -0.14118260298850002
decision_type=2 2 2 2 2 2 2 2 2 2 2 2 2 2 2 2 2 2 2 2 2 2 2 2 2 2 2 2 2 2
left_child=1 2 -1 -2 -5 -6 -7 -8 -9 -10 -11 -12 -13 -14 -15 -16 -17 -18 -19 -20 -21 -22 -23 -24 -25 -26 -27 -28 -29 -30
right_child=3 -3 -4 4 5 6 7 8 9 10 11 12 13 14 15 16 17 18 19 20 21 22 23 24 25 26 27 28 29 -31
leaf_value=0.19943576776401717 -0.14499663057941975 -0.098360617465157479 0.13105190990539883 0.20000820879915826 -0.15808219033035234 0.20000820879915826 -0.15740056684855974 0.20000820879915826 -0.16253545614742118 0.20000820879915826 -0.16044950455245219 0.20000820879915826 -0.16206275190534122 0.20000820879915826 -0.16381748603077786 0.20000820879915826 -0.1518774104895291 0.20000820879915826 -0.16354001109820396 0.20000820879915826 -0.15821018432342834 0.20000820879915826 -0.16314493353118759 0.20000820879915826 -0.16284176900532574 0.20000820879915826 -0.16055884697637079 0.20000820879915826 -0.16334650486859717 -0.070317761149102181
leaf_weight=3668.5 1031 1302.75 14966 146.25 591.75 228.5 671.5 255.5 715.5 281 786.5 299.75 859.5 306.5 912.25 300.25 1014.25 342 1031.5 338 1105.75 363.75 1110 369.25 1098.25 334.25 1146.25 370 1129.75 17708.25
leaf_count=14674 4124 5211 59864 585 2367 914 2686 1022 2862 1124 3146 1199 3438 1226 3649 1201 4057 1368 4126 1352 4423 1455 4440 1477 4393 1337 4585 1480 4519 70833
internal_value=9.12743e-06 0.128644 0.144514 -0.0735878 -0.0714106 -0.0725896 -0.0710602 -0.0729457 -0.0711833 -0.0733538 -0.0713091 -0.0737744 -0.0715125 -0.0742401 -0.0716354 -0.0745391 -0.0716053 -0.0745751 -0.0716105 -0.075169 -0.0715335 -0.075244 -0.0713616 -0.0756043 -0.0712185 -0.0758154 -0.0711956 -0.0756492 -0.0705822 -0.0758969
internal_weight=54784.2 19937.2 18634.5 34847 33816 33669.8 33078 32849.5 32178 31922.5 31207 30926 30139.5 29839.8 28980.2 28673.8 27761.5 27461.2 26447 26105 25073.5 24735.5 23629.8 23266 22156 21786.8 20688.5 20354.2 19208 18838
internal_count=219137 79749 74538 139388 135264 134679 132312 131398 128712 127690 124828 123704 120558 119359 115921 114695 111046 109845 105788 104420 100294 98942 94519 93064 88624 87147 82754 81417 76832 75352
is_linear=0
shrinkage=1


Tree=1
num_leaves=31
num_cat=0
split_feature=1 0 1 3 3 2 2 2 2 3 3 3 3 3 3 3 3 3 3 3 3 3 3 3 3 3 3 3 3 3
split_gain=42228.9 5853.47 1154.58 442.367 883.062 395.398 861.537 396.971 954.414 346.53 1302.88 376.761 1464.26 452.828 1623.42 470.681 1740.59 524.974 1790.82 583.113 1721.86 477.931 1977.2 661.222 1934.54 626.877 2078.82 704.559 2097.91 689.591
threshold=1.0000000180025095e-35 1.0000000180025095e-35 -1.5218132033266352 -1.6673845822499063 -1.5501555054544187 -1.4267326902734008 -1.3719918792744294 -1.3717608853964542 -1.322816088266987 -1.5500573796208397 -1.4327313262162711 -1.4326556375419424 -1.3153605853589425 -1.3152499135910209 -1.1978691209576817 -1.1978499898021486 -1.0804454668533403 -1.0804173928611973 -0.96361500209803685 -0.96296965243119959 -0.84994794590637757 -0.84562094798924148 -0.72828994739413844 -0.72818778644778892 -0.61466311796119499 -0.61079254214949397 -0.49351745098049571 -0.49338620184465004 -0.37604046081772263 -0.37598982039404399
decision_type=2 2 2 2 2 2 2 2 2 2 2 2 2 2 2 2 2 2 2 2 2 2 2 2 2 2 2 2 2 2
left_child=1 2 -1 -2 -5 -6 -7 -8 -9 -10 -11 -12 -13 -14 -15 -16 -17 -18 -19 -20 -21 -22 -23 -24 -25 -26 -27 -28 -29 -30
right_child=3 -3 -4 4 5 6 7 8 9 10 11 12 13 14 15 16 17 18 19 20 21 22 23 24 25 26 27 28 29 -31
leaf_value=0.18134113278669561 -0.13121781104891658 -0.088755024441930994 0.11846443083809539 0.1818724036819509 -0.12012651992301869 0.1979129940021935 -0.16294565268992386 0.19839715175499104 -0.1425087545954857 0.1818724036819509 -0.14133503952670429 0.1818724036819509 -0.14642336487058014 0.1818724036819509 -0.14434840261011969 0.1818724036819509 -0.14577589334058347 0.1818724036819509 -0.14773643349787266 0.1818724036819509 -0.13625838012834998 0.1818724036819509 -0.14823962971800661 0.1818724036819509 -0.14315606332245295 0.1818724036819509 -0.14783861063402493 0.1818724036819509 -0.14712916477145163 -0.06308525319956447
leaf_weight=3632.2621939480305 1025.5999942421913 1299.6040898859501 14901.924543142319 144.79707285761833 1279.7992613613605 125.62838159501553 404.22915686666965 138.83720999956131 557.50968664884567 215.83426928520203 628.10166835784912 242.07100385427475 668.82306805253029 267.81270569562912 737.24488365650177 286.37643298506737 799.7373628616333 294.04944026470184 850.53095445036888 282.66368752717972 940.56563067436218 323.75140392780304 959.81801509857178 316.82094573974609 1030.5378245711327 340.33500030636787 1032.1170000433922 343.55271303653717 1027.9205035567284 19437.245995998383
leaf_count=14674 4124 5211 59864 585 5139 505 1623 558 2244 872 2528 978 2693 1082 2968 1157 3220 1188 3425 1142 3784 1308 3865 1280 4148 1375 4156 1388 4139 77914
internal_value=5.03681e-06 0.116401 0.130787 -0.0665202 -0.0645499 -0.065614 -0.0634509 -0.0644729 -0.0632181 -0.0643681 -0.062964 -0.0646792 -0.0630839 -0.0650645 -0.0632055 -0.0654685 -0.0634111 -0.0659216 -0.063572 -0.0662564 -0.0635946 -0.0662889 -0.0636365 -0.0668823 -0.0635634 -0.0669134 -0.0633712 -0.0671927 -0.0631926 -0.0673066
internal_weight=54536.1 19833.8 18534.2 34702.3 33676.7 33531.9 32252.1 32126.5 31722.3 31583.4 31025.9 30810.1 30182 29939.9 29271.1 29003.3 28266 27979.6 27179.9 26885.9 26035.3 25752.7 24812.1 24488.3 23528.5 23211.7 22181.2 21840.8 20808.7 20465.2
internal_count=219137 79749 74538 139388 135264 134679 129540 129035 127412 126854 124610 123738 121210 120232 117539 116457 113489 112332 109112 107924 104499 103357 99573 98265 94400 93120 88972 87597 83441 82053
is_linear=0
shrinkage=0.1


Tree=2
num_leaves=31
num_cat=0
split_feature=1 0 1 3 3 2 2 2 2 2 2 3 3 3 3 3 3 3 3 3 3 3 3 3 3 3 3 3 3 3
split_gain=34666.3 4819.15 1022.34 367.123 729.378 334.629 615.281 321.569 706.251 329.88 782.142 289.235 1076.09 314.483 1209.17 379.06 1340.33 393.92 1436.72 439.999 1477.78 489.533 1420.48 399.649 1630.61 556.208 1594.83 526.869 1713.05 594.077
threshold=1.0000000180025095e-35 1.0000000180025095e-35 -1.5218132033266352 -1.6673845822499063 -1.5501555054544187 -1.4819115093128488 -1.4269479134844461 -1.4267326902734008 -1.3719918792744294 -1.3717608853964542 -1.322816088266987 -1.5500573796208397 -1.4327313262162711 -1.4326556375419424 -1.3153605853589425 -1.3152499135910209 -1.1978691209576817 -1.1978499898021486 -1.0804454668533403 -1.0804173928611973 -0.96361500209803685 -0.96296965243119959 -0.84994794590637757 -0.84562094798924148 -0.72828994739413844 -0.72818778644778892 -0.61466311796119499 -0.61079254214949397 -0.49351745098049571 -0.49338620184465004
decision_type=2 2 2 2 2 2 2 2 2 2 2 2 2 2 2 2 2 2 2 2 2 2 2 2 2 2 2 2 2 2
left_child=1 2 -1 -2 -5 -6 -7 -8 -9 -10 -11 -12 -13 -14 -15 -16 -17 -18 -19 -20 -21 -22 -23 -24 -25 -26 -27 -28 -29 -30
right_child=3 -3 -4 4 5 6 7 8 9 10 11 12 13 14 15 16 17 18 19 20 21 22 23 24 25 26 27 28 29 -31
leaf_value=0.16773958385708992 -0.11981422488826535 -0.080411433215459543 0.10788259483098575 0.16825765257278164 -0.12398539129147866 0.21034314404744781 -0.14854040635834129 0.18047524136778223 -0.14906244336815086 0.18083044409921101 -0.13046596056258228 0.16825765257278164 -0.1293612801909409 0.16825765257278164 -0.13417772517311663 0.16825765257278164 -0.13221171219625161 0.16825765257278164 -0.13356575840355814 0.16825765257278164 -0.13542287866240613 0.16825765257278164 -0.12456850804896083 0.16825765257278164 -0.13589229713272521 0.16825765257278164 -0.13107307948013405 0.16825765257278164 -0.13551177766585129 -0.057128995018369037
leaf_weight=3538.6736817061901 1011.5825200080872 1291.4131848067045 14735.455917477608 141.04495480656624 788.74391143023968 85.181563124060631 394.1687970161438 124.05459861457348 397.98424500226974 137.15983740985394 548.51614683866501 210.24136853218079 618.10672664642334 235.79823213815689 657.43583117425442 260.87289077043533 725.03010308742523 278.95557728409767 786.22584909200668 286.42975437641144 835.80340929329395 275.3390399813652 926.63377928733826 315.36205279827118 943.14380839467049 308.61118316650391 1013.8063475489616 331.51591941714287 1014.2787819504738 20719.489707231522
leaf_count=14674 4124 5211 59864 585 3197 343 1599 505 1623 558 2244 872 2528 978 2693 1082 2968 1157 3220 1188 3425 1142 3784 1308 3865 1280 4148 1375 4156 83441
internal_value=2.17187e-05 0.10628 0.119474 -0.0604646 -0.0586649 -0.0596284 -0.0580631 -0.05877 -0.0576625 -0.0585907 -0.0574451 -0.0584895 -0.0572053 -0.0587578 -0.057299 -0.059091 -0.05739 -0.0594368 -0.0575547 -0.0598242 -0.0576745 -0.0600997 -0.0576641 -0.0600966 -0.0576726 -0.060601 -0.0575647 -0.0605844 -0.0573457 -0.060787
internal_weight=53937.1 19565.5 18274.1 34371.5 33359.9 33218.9 32430.1 32345 31950.8 31826.7 31428.8 31291.6 30743.1 30532.8 29914.7 29678.9 29021.5 28760.6 28035.6 27756.6 26970.4 26684 25848.2 25572.8 24646.2 24330.8 23387.7 23079.1 22065.3 21733.8
internal_count=219137 79749 74538 139388 135264 134679 131482 131139 129540 129035 127412 126854 124610 123738 121210 120232 117539 116457 113489 112332 109112 107924 104499 103357 99573 98265 94400 93120 88972 87597
is_linear=0
shrinkage=0.1


Tree=3
num_leaves=31
num_cat=0
split_feature=1 0 1 3 3 2 2 2 2 2 2 2 2 2 2 2 2 2 2 2 2 2 2 2 2 2 2 2 2 2
split_gain=28624.4 3997.24 940.504 308.472 607.874 278.653 501.604 270.594 585.338 279.758 648.048 265.873 1047.84 416.899 1135.95 319.216 1139.41 353.391 1117.59 374.278 1142.49 433.555 1150.5 265.193 1152.81 364.376 1160.85 384.372 1089.77 430.376
threshold=1.0000000180025095e-35 1.0000000180025095e-35 -1.5218132033266352 -1.6673845822499063 -1.5501555054544187 -1.4819115093128488 -1.4269479134844461 -1.4267326902734008 -1.3719918792744294 -1.3717608853964542 -1.322816088266987 -1.3166967685310096 -1.2616593678451629 -1.2614935802403895 -1.2085294224367817 -1.2064862093865261 -1.1554995796927585 -1.1514417628370752 -1.0981452192475074 -1.0963632842262985 -1.0423528601959846 -1.041282695817574 -0.99099070814874102 -0.98623140589864067 -0.93541950729598555 -0.93112705202280932 -0.87813103159376327 -0.87600615465928378 -0.821031560825357 -0.82099616749241544
decision_type=2 2 2 2 2 2 2 2 2 2 2 2 2 2 2 2 2 2 2 2 2 2 2 2 2 2 2 2 2 2
left_child=1 2 -1 -2 -5 -6 -7 -8 -9 -10 -11 -12 -13 -14 -15 -16 -17 -18 -19 -20 -21 -22 -23 -24 -25 -26 -27 -28 -29 -30
right_child=3 -3 -4 4 5 6 7 8 9 10 11 12 13 14 15 16 17 18 19 20 21 22 23 24 25 26 27 28 29 -31
leaf_value=0.15716405216654422 -0.11011891293184457 -0.073066472944858241 0.098767486835778073 0.15768700135498362 -0.11362319270733166 0.18958047557606503 -0.13688001235755848 0.16729278572946496 -0.13781960644938018 0.16756297735806458 -0.13158836472006749 0.20257283653542357 -0.15150896123358082 0.20242276853975638 -0.13801992714223002 0.2011095607394521 -0.14379671281852208 0.1990938267300861 -0.1462546830470409 0.20131117584616806 -0.15064241752955773 0.20000646726348148 -0.12682054177277127 0.20252850059926819 -0.14037926361492378 0.2039325284969003 -0.14416268436977631 0.20347450252182386 -0.14901178019630032 -0.053016191566514687
leaf_weight=3405.8335776031017 991.60852718353271 1279.7155302911997 14498.076108574867 135.71943819522858 775.29084105789661 85.04965053498745 385.41119088232517 120.61604464054108 387.91413989663124 133.40251649916172 427.97196374833584 160.55772836506367 428.4658183157444 174.24139399826527 441.84357145428658 176.24897618591785 430.98754321038723 175.38186909258366 434.15458115935326 175.97304068505764 459.3426309376955 179.01079173386097 495.61654694378376 175.40061868727207 487.07822966575623 174.55844451487064 472.70413549244404 164.40190424025059 475.99587440490723 24797.968716844916
leaf_count=14674 4124 5211 59864 585 3197 343 1599 505 1623 558 1754 660 1755 717 1811 728 1766 724 1779 726 1884 738 2033 722 1997 719 1937 678 1951 101775
internal_value=4.40414e-05 0.0976723 0.109876 -0.0551654 -0.0535106 -0.0543846 -0.0529503 -0.0535962 -0.0525788 -0.0534226 -0.052368 -0.0533172 -0.0522182 -0.0535675 -0.0521635 -0.0536563 -0.052383 -0.0539184 -0.0525671 -0.0541162 -0.0526905 -0.0542936 -0.0526797 -0.0543401 -0.0529971 -0.0546837 -0.0530836 -0.0548151 -0.0531548 -0.0548241
internal_weight=53106.5 19183.6 17903.9 33922.9 32931.3 32795.6 32020.3 31935.2 31549.8 31429.2 31041.3 30907.9 30479.9 30319.4 29890.9 29716.7 29274.8 29098.6 28667.6 28492.2 28058.1 27882.1 27422.7 27243.7 26748.1 26572.7 26085.6 25911.1 25438.4 25274
internal_count=219137 79749 74538 139388 135264 134679 131482 131139 129540 129035 127412 126854 125100 124440 122685 121968 120157 119429 117663 116939 115160 114434 112550 111812 109779 109057 107060 106341 104404 103726
is_linear=0
shrinkage=0.1


Tree=4
num_leaves=31
num_cat=0
split_feature=1 0 1 3 3 3 3 3 3 3 3 3 3 3 3 3 3 3 3 3 3 3 3 3 3 3 3 3 3 3
split_gain=23693.5 3333.7 888.161 264.042 508.924 252.102 913.183 279.669 1023.08 337.101 1128.73 351.066 1211.32 395.156 1239.84 437.326 1211.67 361.997 1380.17 492.466 1372.07 464.865 1478.81 526.281 1771.22 606.211 1936.82 708.198 2157.92 747.294
threshold=1.0000000180025095e-35 1.0000000180025095e-35 -1.5218132033266352 -1.6673845822499063 -1.5501555054544187 -1.5500573796208397 -1.4327313262162711 -1.4326556375419424 -1.3153605853589425 -1.3152499135910209 -1.1978691209576817 -1.1978499898021486 -1.0804454668533403 -1.0804173928611973 -0.96361500209803685 -0.96296965243119959 -0.84994794590637757 -0.84562094798924148 -0.72828994739413844 -0.72818778644778892 -0.61466311796119499 -0.61079254214949397 -0.49351745098049571 -0.49338620184465004 -0.37604046081772263 -0.37598982039404399 -0.26196135731644415 -0.2585301746939222 -0.14129625041357127 -0.14118260298850002
decision_type=2 2 2 2 2 2 2 2 2 2 2 2 2 2 2 2 2 2 2 2 2 2 2 2 2 2 2 2 2 2
left_child=1 2 -1 -2 -5 -6 -7 -8 -9 -10 -11 -12 -13 -14 -15 -16 -17 -18 -19 -20 -21 -22 -23 -24 -25 -26 -27 -28 -29 -30
right_child=3 -3 -4 4 5 6 7 8 9 10 11 12 13 14 15 16 17 18 19 20 21 22 23 24 25 26 27 28 29 -31
leaf_value=0.14873052041772467 -0.10168811014057051 -0.066527625812950422 0.090764654331489919 0.14927145199815225 -0.11622812231391676 0.15866812490653576 -0.11558888395687046 0.15860209110852638 -0.12008713348231044 0.1587974621106234 -0.11831131291302727 0.1590864891549075 -0.1195449040218684 0.1591236953523332 -0.12108823537333169 0.15918546376111575 -0.11094676758435462 0.15906523279281648 -0.12095180701920501 0.15949988379906557 -0.11628337946083181 0.15975087649046762 -0.12050396718240897 0.17294682763996963 -0.12557742429685079 0.19220719727797228 -0.12916540979827812 0.19304003709118775 -0.13193502130516307 -0.046658766770215132
leaf_weight=3247.1809217333794 967.68861502408981 1265.6876007467508 14213.666002631187 129.35932315886021 556.01089833676815 211.7509585916996 631.19287601113319 237.04743684828281 670.24298550188541 260.68473300337791 737.86736463010311 278.50478909909725 805.06178607046604 284.73298434913158 853.50572697818279 278.32841125130653 956.72909657657146 317.00615985691547 965.12201495468616 314.20166552066803 1038.2646405696869 337.99701206386089 1038.7107672542334 358.00621195137501 1046.0504219830036 331.53186790645123 1108.7284967899323 367.43741783499718 1092.1541938781738 17393.080779895186
leaf_count=14674 4124 5211 59864 585 2367 914 2686 1022 2862 1124 3146 1199 3438 1226 3649 1201 4057 1368 4126 1352 4423 1455 4440 1477 4393 1337 4585 1480 4519 70833
internal_value=6.55729e-05 0.0901849 0.101545 -0.0502107 -0.0486826 -0.0494712 -0.0483082 -0.0496906 -0.048352 -0.049943 -0.0483844 -0.0501905 -0.0484671 -0.0504682 -0.0484878 -0.0506145 -0.048382 -0.0505486 -0.0483009 -0.0508898 -0.0481216 -0.0508271 -0.0478817 -0.0509684 -0.0476395 -0.0513403 -0.0475136 -0.051495 -0.0469272 -0.0516971
internal_weight=52293.5 18726.5 17460.8 33567 32599.3 32470 31913.9 31702.2 31071 30833.9 30163.7 29903 29165.2 28886.6 28081.6 27796.9 26943.3 26665 25708.3 25391.3 24426.2 24112 23073.7 22735.7 21697 21339 20292.9 19961.4 18852.7 18485.2
internal_count=219137 79749 74538 139388 135264 134679 132312 131398 128712 127690 124828 123704 120558 119359 115921 114695 111046 109845 105788 104420 100294 98942 94519 93064 88624 87147 82754 81417 76832 75352
is_linear=0
shrinkage=0.1


Tree=5
num_leaves=31
num_cat=0
split_feature=1 0 1 3 3 3 3 2 2 3 3 3 3 3 3 3 3 3 3 3 3 3 3 3 3 3 3 3 3 3
split_gain=19720.4 2791.41 853.577 239.604 694.734 272.804 430.125 232.537 353.223 215.056 760.161 240.642 853.292 286.744 938.596 297.699 1004.43 335.744 1029.44 382.014 995.284 303.756 1134.21 421.982 1133.71 397.821 1224.96 453.926 1456.88 517.78
threshold=1.0000000180025095e-35 1.0000000180025095e-35 -1.5218132033266352 -1.7846782469200184 -1.6739958850047203 -1.6673845822499063 -1.5501555054544187 -1.5370197479624965 -1.4983043515146159 -1.5500573796208397 -1.4327313262162711 -1.4326556375419424 -1.3153605853589425 -1.3152499135910209 -1.1978691209576817 -1.1978499898021486 -1.0804454668533403 -1.0804173928611973 -0.96361500209803685 -0.96296965243119959 -0.84994794590637757 -0.84562094798924148 -0.72828994739413844 -0.72818778644778892 -0.61466311796119499 -0.61079254214949397 -0.49351745098049571 -0.49338620184465004 -0.37604046081772263 -0.37598982039404399
decision_type=2 2 2 2 2 2 2 2 2 2 2 2 2 2 2 2 2 2 2 2 2 2 2 2 2 2 2 2 2 2
left_child=1 2 -1 -2 -5 -6 -7 -8 -9 -10 -11 -12 -13 -14 -15 -16 -17 -18 -19 -20 -21 -22 -23 -24 -25 -26 -27 -28 -29 -30
right_child=3 -3 -4 4 5 6 7 8 9 10 11 12 13 14 15 16 17 18 19 20 21 22 23 24 25 26 27 28 29 -31
leaf_value=0.14186994293255381 -0.12177699354364979 -0.060655419321640008 0.083629388401406823 0.28364524384640027 -0.12191331394708611 0.14243924234381902 -0.12688836140077606 0.24006070421735548 -0.10786375514719877 0.14993116705484807 -0.10744837269246094 0.14993458808632806 -0.11153727507185221 0.15001455011363066 -0.10978149867752239 0.15016515979186221 -0.11101162133213793 0.15025118107945606 -0.11328971938925668 0.14999582785285287 -0.10232528823364284 0.14991969614964976 -0.1124429588580641 0.15046687919450219 -0.10785366855248646 0.1507903323536581 -0.11215747895259426 0.16125813235932465 -0.11653603773472039 -0.042690140096754738
leaf_weight=3072.7519728839397 413.14951315522194 1250.2250107079744 13900.314449906349 64.140891268849373 464.05135925114155 122.36695982515812 346.42151486873627 43.558247610926628 533.32314030826092 201.18418334424496 606.55405858159065 225.57098773121834 639.43692223727703 247.6369818598032 702.97513666749001 264.2050891071558 766.3178201764822 270.39955186843872 814.39419262111187 262.50369814038277 914.10817687213421 299.12821224331856 919.707654774189 297.83781152963638 991.67848469316959 321.0760635882616 989.16674548387527 344.02181489765644 997.14589856564999 19868.991080656648
leaf_count=14674 1810 5211 59864 281 2033 585 1493 181 2343 911 2663 1020 2823 1120 3096 1193 3383 1221 3602 1189 3990 1355 4067 1344 4360 1449 4373 1470 4317 81716
internal_value=8.56574e-05 0.0835509 0.0941731 -0.0461021 -0.0451406 -0.0457905 -0.0446862 -0.0454047 -0.0445092 -0.044903 -0.0438179 -0.0450858 -0.0438306 -0.0452919 -0.0438447 -0.0454988 -0.0439032 -0.0457307 -0.0438976 -0.0458405 -0.0437444 -0.0457047 -0.0436368 -0.0459781 -0.0434107 -0.0458667 -0.0431371 -0.0459419 -0.0428539 -0.0462191
internal_weight=51154.3 18223.3 16973.1 32931.1 32517.9 32453.8 31989.7 31867.3 31520.9 31477.4 30944 30742.9 30136.3 29910.7 29271.3 29023.7 28320.7 28056.5 27290.2 27019.8 26205.4 25942.9 25028.8 24729.6 23809.9 23512.1 22520.4 22199.3 21210.2 20866.1
internal_count=219137 79749 74538 139388 137578 137297 135264 134679 133186 133005 130662 129751 127088 126068 123245 122125 119029 117836 114453 113232 109630 108441 104451 103096 99029 97685 93325 91876 87503 86033
is_linear=0
shrinkage=0.1


Tree=6
num_leaves=31
num_cat=0
split_feature=1 0 1 3 3 3 3 2 2 2 2 2 2 2 2 2 2 2 2 2 2 2 2 2 2 2 2 2 2 2
split_gain=16442.1 2344 829.681 207.818 536.689 236.606 365.128 210.694 376.782 214.987 443.317 225.927 493.892 209.287 801.076 331.842 868.675 250.682 871.144 279.696 843.595 297.775 872.332 345.954 870.319 209.522 882.422 290.994 894.667 306.325
threshold=1.0000000180025095e-35 1.0000000180025095e-35 -1.5218132033266352 -1.7846782469200184 -1.6739958850047203 -1.6673845822499063 -1.5501555054544187 -1.4819115093128488 -1.4269479134844461 -1.4267326902734008 -1.3719918792744294 -1.3717608853964542 -1.322816088266987 -1.3166967685310096 -1.2616593678451629 -1.2614935802403895 -1.2085294224367817 -1.2064862093865261 -1.1554995796927585 -1.1514417628370752 -1.0981452192475074 -1.0963632842262985 -1.0423528601959846 -1.041282695817574 -0.99099070814874102 -0.98623140589864067 -0.93541950729598555 -0.93112705202280932 -0.87813103159376327 -0.87600615465928378
decision_type=2 2 2 2 2 2 2 2 2 2 2 2 2 2 2 2 2 2 2 2 2 2 2 2 2 2 2 2 2 2
left_child=1 2 -1 -2 -5 -6 -7 -8 -9 -10 -11 -12 -13 -14 -15 -16 -17 -18 -19 -20 -21 -22 -23 -24 -25 -26 -27 -28 -29 -30
right_child=3 -3 -4 4 5 6 7 8 9 10 11 12 13 14 15 16 17 18 19 20 21 22 23 24 25 26 27 28 29 -31
leaf_value=0.13619838481013014 -0.1142255660652743 -0.055346455725297762 0.077188527186967892 0.23829106758104884 -0.11435917388838067 0.13680501056547231 -0.094950116743518997 0.17484376573357499 -0.1180732860822771 0.15802121296493235 -0.11979620039452288 0.15857557769389358 -0.11231776410112165 0.18875353311846682 -0.13129629452274558 0.18881872097095431 -0.11817989245392886 0.18833240718439842 -0.12382530698486249 0.18552168852235812 -0.12629675910095081 0.18825621467222828 -0.13059519090284852 0.18624048574942736 -0.10792321779929369 0.18909848268230672 -0.12088853569592924 0.19113978397046408 -0.12431403944807801 -0.040388089607661423
leaf_weight=2890.0382289588451 397.245814204216 1234.0053336471319 13571.659005522728 68.43604750931263 446.16698786616325 115.04264630377293 725.13736240565777 81.101954698562622 357.51482957601547 112.55498918890953 357.82492618262768 124.90146565437317 402.44987410306931 152.67411096394062 400.58765928447247 165.46341539919376 414.43504524230957 166.34275282919407 403.71628990769386 164.89779295027256 406.45335823297501 166.30920101702213 428.64218899607658 168.90140798687935 466.27866208553314 166.6200464963913 456.6884610503912 165.8623458892107 442.80224215984344 24372.754501461983
leaf_count=14674 1810 5211 59864 281 2033 585 3197 343 1599 505 1623 558 1754 660 1755 717 1811 728 1766 724 1779 726 1884 738 2033 722 1997 719 1937 104404
internal_value=0.000106353 0.0775836 0.0875484 -0.0423428 -0.0414477 -0.0420491 -0.0410212 -0.0416754 -0.0404107 -0.0409837 -0.0400683 -0.0408116 -0.039858 -0.0406978 -0.0397076 -0.0409122 -0.0396443 -0.0409758 -0.0398321 -0.0411968 -0.0399797 -0.0413447 -0.0400579 -0.0414817 -0.040026 -0.0414919 -0.0402821 -0.0417846 -0.0403385 -0.0418856
internal_weight=49993.5 17695.7 16461.7 32297.8 31900.6 31832.1 31386 31270.9 30545.8 30464.7 30107.2 29994.6 29636.8 29511.9 29109.4 28956.8 28556.2 28390.7 27976.3 27809.9 27406.2 27241.3 26834.9 26668.5 26239.9 26071 25604.7 25438.1 24981.4 24815.6
internal_count=219137 79749 74538 139388 137578 137297 135264 134679 131482 131139 129540 129035 127412 126854 125100 124440 122685 121968 120157 119429 117663 116939 115160 114434 112550 111812 109779 109057 107060 106341
is_linear=0
shrinkage=0.1


Tree=7
num_leaves=31
num_cat=0
split_feature=1 0 1 4 2 2 2 2 3 3 3 3 3 3 3 3 3 3 3 3 3 3 3 3 3 3 3 3 3 3
split_gain=13698.3 1972.12 811.976 192.581 150.762 322.541 154.989 362.524 135.926 468.784 151.291 544.422 162.051 612.936 169.426 666.887 182.629 656.143 214.045 647.179 180.582 721.731 236.331 731.389 235.29 727.724 292.567 890.79 317.112 1184.47
threshold=1.0000000180025095e-35 1.0000000180025095e-35 -1.5218132033266352 1.0000000180025095e-35 -1.4267326902734008 -1.3719918792744294 -1.3717608853964542 -1.322816088266987 -1.5500573796208397 -1.4327313262162711 -1.4326556375419424 -1.3153605853589425 -1.3152499135910209 -1.1978691209576817 -1.1978499898021486 -1.0804454668533403 -1.0804173928611973 -0.96361500209803685 -0.96296965243119959 -0.84994794590637757 -0.84562094798924148 -0.72828994739413844 -0.72818778644778892 -0.61466311796119499 -0.61079254214949397 -0.49351745098049571 -0.49338620184465004 -0.37604046081772263 -0.37598982039404399 -0.26196135731644415
decision_type=2 2 2 2 2 2 2 2 2 2 2 2 2 2 2 2 2 2 2 2 2 2 2 2 2 2 2 2 2 2
left_child=1 2 -1 4 -2 -6 -7 -8 -9 -10 -11 -12 -13 -14 -15 -16 -17 -18 -19 -20 -21 -22 -23 -24 -25 -26 -27 -28 -29 -30
right_child=3 -3 -4 -5 5 6 7 8 9 10 11 12 13 14 15 16 17 18 19 20 21 22 23 24 25 26 27 28 29 -31
leaf_value=0.13144687862983961 -0.082562480734293869 -0.050522451956142626 0.071317187011690306 -0.023703854093096291 0.15322423889699638 -0.11504768762749643 0.15185085513858904 -0.076011236217194245 0.14392422185583328 -0.099872402354558867 0.14435761293067192 -0.10034591345425213 0.14391401620005315 -0.098566074952724514 0.14442442119463969 -0.09900227317643065 0.14430710316315712 -0.10168627015000656 0.14388805649582057 -0.093704236463004298 0.1439201385913815 -0.1011279142530207 0.14439427661513315 -0.098936570067590546 0.14443460004043984 -0.10557724010500168 0.15394006163688084 -0.10780297262614978 0.18225566568167659 -0.043162337938630925
leaf_weight=2704.5982366502285 915.05936680734158 1217.536011993885 13237.892154097557 6761.3522545546293 85.016836881637573 286.20494964718819 97.059832155704498 1107.5743796974421 137.53864544630051 431.89118553698063 158.83909764885902 457.38586676120758 179.32191714644432 512.11241441965103 193.52401760220528 548.63823683559895 190.24444086849689 588.80054922401905 188.53335238993168 659.78577302396297 209.87975798547268 664.39644785225391 211.66580213606358 711.52161400020123 210.73503822088242 705.57487703859806 233.89892455935478 713.28503978252411 236.92306236922741 14451.970404788852
leaf_count=14674 4184 5211 59864 29583 398 1356 453 5237 658 2000 756 2134 858 2381 920 2561 906 2756 903 3025 1005 3110 1006 3302 1001 3302 1040 3250 966 60337
internal_value=0.000124464 0.0721495 0.081518 -0.0386825 -0.0427194 -0.0412111 -0.0418974 -0.0410177 -0.0418075 -0.040131 -0.0412581 -0.0401088 -0.0414487 -0.0401905 -0.0417455 -0.0403411 -0.0420831 -0.0405199 -0.042297 -0.0404755 -0.042304 -0.0404558 -0.0425891 -0.0403635 -0.0426287 -0.0402083 -0.0425894 -0.0397471 -0.0426884 -0.0395265
internal_weight=49008.8 17160 15942.5 31848.7 25087.4 24172.3 24087.3 23801.1 23704 22596.5 22458.9 22027 21868.2 21410.8 21231.5 20719.4 20525.9 19977.2 19787 19198.2 19009.6 18349.9 18140 17475.6 17263.9 16552.4 16341.7 15636.1 15402.2 14688.9
internal_count=219137 79749 74538 139388 109805 105621 105223 103867 103414 98177 97519 95519 94763 92629 91771 89390 88470 85909 85003 82247 81344 78319 77314 74204 73198 69896 68895 65593 64553 61303
is_linear=0
shrinkage=0.1


Tree=8
num_leaves=31
num_cat=0
split_feature=1 0 1 3 3 3 3 4 3 3 3 3 3 3 3 3 3 3 3 3 3 3 3 3 3 3 3 3 3 3
split_gain=11435.1 1661.27 797.491 175.349 437.627 199.028 315.244 178.871 163.265 423.178 141.014 489.993 148.559 548.619 156.319 593.071 168.664 584.92 196.917 590.569 167.38 646.482 219.214 656.874 215.533 656.257 272.725 786.957 288.14 1019.26
threshold=1.0000000180025095e-35 1.0000000180025095e-35 -1.5218132033266352 -1.7846782469200184 -1.6739958850047203 -1.6673845822499063 -1.5501555054544187 1.0000000180025095e-35 -1.5500573796208397 -1.4327313262162711 -1.4326556375419424 -1.3153605853589425 -1.3152499135910209 -1.1978691209576817 -1.1978499898021486 -1.0804454668533403 -1.0804173928611973 -0.96361500209803685 -0.96296965243119959 -0.84994794590637757 -0.84562094798924148 -0.72828994739413844 -0.72818778644778892 -0.61466311796119499 -0.61079254214949397 -0.49351745098049571 -0.49338620184465004 -0.37604046081772263 -0.37598982039404399 -0.26196135731644415
decision_type=2 2 2 2 2 2 2 2 2 2 2 2 2 2 2 2 2 2 2 2 2 2 2 2 2 2 2 2 2 2
left_child=1 2 -1 -2 -5 -6 -7 8 -8 -10 -11 -12 -13 -14 -15 -16 -17 -18 -19 -20 -21 -22 -23 -24 -25 -26 -27 -28 -29 -30
right_child=3 -3 -4 4 5 6 7 -9 9 10 11 12 13 14 15 16 17 18 19 20 21 22 23 24 25 26 27 28 29 -31
leaf_value=0.12742109273979393 -0.10386826034888041 -0.046122862714073669 0.065923939541580115 0.21534792050267215 -0.10393834724787676 0.13407608013955891 -0.10386320835320494 -0.020244131113506505 0.13834631262044886 -0.094834519917875976 0.13843062821798266 -0.094869789625246559 0.13844881024131042 -0.093419182879474413 0.1387390871473673 -0.093630683359438749 0.13886875155773012 -0.095992765700900054 0.13924122021121368 -0.088393838044097839 0.13887339262879372 -0.095647451404379816 0.13904202816743558 -0.093013788935641495 0.13948681407791327 -0.09987966975694873 0.14619641496954811 -0.10123960565019048 0.16811640823051202 -0.039959789959742704
leaf_weight=2520.5119661688805 370.48899123072624 1201.1914738118649 12906.535603165627 69.857040852308273 415.8774796128273 110.80595915019512 381.01149855554104 6530.0823405534029 135.48700977861881 442.12770985066891 156.66156736016273 466.68679048120975 175.10032060742378 520.35492400825024 188.30623519420624 560.71417896449566 185.20758482813835 601.98759211599827 186.35713121294975 679.24180352687836 204.71538551151752 677.47669824957848 207.84569974243641 729.11305217444897 206.97439612448215 720.1912690103054 231.16665484011173 724.94872166216373 239.13358250260353 15155.337173178792
leaf_count=14674 1810 5211 59864 281 2033 585 1823 28613 691 2134 795 2271 892 2520 953 2729 938 2942 948 3235 1042 3308 1051 3524 1045 3524 1091 3450 1009 64151
internal_value=0.000146395 0.0671516 0.0759715 -0.0354808 -0.0346609 -0.0352274 -0.0342879 -0.0349035 -0.0389297 -0.0378722 -0.0388986 -0.0378148 -0.0390332 -0.0378591 -0.0392612 -0.0379503 -0.0395116 -0.0380492 -0.0396425 -0.0379432 -0.0396129 -0.0378778 -0.0397931 -0.0377157 -0.0397559 -0.0375085 -0.0396544 -0.0370017 -0.0396289 -0.0367276
internal_weight=47901.5 16628.2 15427 31273.3 30902.8 30832.9 30417 30306.2 23776.1 23395.1 23259.6 22817.5 22660.9 22194.2 22019.1 21498.7 21310.4 20749.7 20564.5 19962.5 19776.1 19096.9 18892.2 18214.7 18006.9 17277.8 17070.8 16350.6 16119.4 15394.5
internal_count=219137 79749 74538 139388 137578 137297 135264 134679 106066 104243 103552 101418 100623 98352 97460 94940 93987 91258 90320 87378 86430 83195 82153 78845 77794 74270 73225 69701 68610 65160
is_linear=0
shrinkage=0.1


Tree=9
num_leaves=31
num_cat=0
split_feature=1 0 1 2 2 3 3 3 3 4 3 3 2 2 2 2 2 2 2 2 2 2 2 2 2 2 2 2 2 2
split_gain=9551.87 1400.29 784.211 167.989 307.11 152.407 352.79 180.586 264.842 160.393 142.672 358.609 128.577 228.257 133.677 241.161 127.387 281.506 114.932 513.992 207.868 572.819 117.906 572.424 159.43 522.829 178.704 554.967 202.663 570.772
threshold=1.0000000180025095e-35 1.0000000180025095e-35 -1.5218132033266352 -1.5370197479624965 -1.4983043515146159 -1.7846782469200184 -1.6739958850047203 -1.6673845822499063 -1.5501555054544187 1.0000000180025095e-35 -1.5500573796208397 -1.4327313262162711 -1.4819115093128488 -1.4269479134844461 -1.4267326902734008 -1.3719918792744294 -1.3717608853964542 -1.322816088266987 -1.3166967685310096 -1.2616593678451629 -1.2614935802403895 -1.2085294224367817 -1.2064862093865261 -1.1554995796927585 -1.1514417628370752 -1.0981452192475074 -1.0963632842262985 -1.0423528601959846 -1.041282695817574 -0.99099070814874102
decision_type=2 2 2 2 2 2 2 2 2 2 2 2 2 2 2 2 2 2 2 2 2 2 2 2 2 2 2 2 2 2
left_child=1 2 -1 -2 -5 -6 -7 -8 -9 10 -10 -12 -13 -14 -15 -16 -17 -18 -19 -20 -21 -22 -23 -24 -25 -26 -27 -28 -29 -30
right_child=3 -3 -4 4 5 6 7 8 9 -11 11 12 13 14 15 16 17 18 19 20 21 22 23 24 25 26 27 28 29 -31
leaf_value=0.12397683792171824 -0.10474124913521971 -0.04209986586591033 0.060940969460899046 0.22885394460344563 -0.097921181045754146 0.19301378083431855 -0.099464037016219753 0.12980455798723939 -0.097858743732860284 -0.017657891160521671 0.13330227703951586 -0.10717581104842061 0.17182627991918448 -0.10731619988016461 0.1452368455861793 -0.1056818137001331 0.14593900831826065 -0.097008310595050218 0.18361388451330715 -0.11919403777580873 0.18179820311677666 -0.097038810029462783 0.18204223090930449 -0.11010248786577802 0.17986851306254145 -0.11430872025580741 0.18312434476996309 -0.1167224921202485 0.18114693113637004 -0.036002227114096175
leaf_weight=2340.7230135798454 319.20005621016026 1185.2430280297995 12583.03616797924 45.130191907286644 348.83306887745857 69.863984286785126 391.15389035642147 101.98039871454239 361.48797655105591 6424.3717159926891 126.59178614616394 247.38261638581753 53.395413115620613 253.94682443141937 74.525962963700294 251.73660050332546 86.467956647276878 293.46947176754475 107.98924712836742 289.96837635338306 122.35134688019753 303.93682593107224 121.58200916647911 283.13911020755768 113.09281031787395 285.43547162413597 116.36657658219337 305.46132174134254 121.81850661337376 19060.877399384975
leaf_count=14674 1549 5211 59864 189 1785 280 2003 577 1807 28242 690 1179 231 1253 372 1284 428 1381 494 1386 565 1438 568 1345 532 1355 537 1467 565 85886
internal_value=0.000164287 0.062519 0.0708279 -0.0325744 -0.0318157 -0.0322037 -0.0314388 -0.0319632 -0.0310684 -0.0316264 -0.0355313 -0.0345352 -0.0354798 -0.0346825 -0.0351794 -0.0343443 -0.0349565 -0.0341327 -0.034856 -0.0339969 -0.0351094 -0.0339391 -0.0352135 -0.0342928 -0.0355893 -0.0345346 -0.0357537 -0.03461 -0.0359101 -0.0346232
internal_weight=46790.6 16109 14923.8 30681.6 30362.4 30317.2 29968.4 29898.5 29507.4 29405.4 22981 22619.5 22492.9 22245.6 22192.2 21938.2 21863.7 21612 21525.5 21232 21124 20834.1 20711.7 20407.8 20286.2 20003.1 19890 19604.5 19488.2 19182.7
internal_count=219137 79749 74538 139388 137839 137650 135865 135585 133582 133005 104763 102956 102266 101087 100856 99603 99231 97947 97519 96138 95644 94258 93693 92255 91687 90342 89810 88455 87918 86451
is_linear=0
shrinkage=0.1


Tree=10
num_leaves=31
num_cat=0
split_feature=1 0 1 2 2 3 3 3 3 3 3 3 3 3 3 3 3 3 3 3 3 3 3 3 3 3 3 3 3 3
split_gain=7964.13 1180.48 770.766 147.322 247.365 134.652 290.598 159.694 227.014 138.915 435.752 165.512 535.06 205.454 584.9 212.11 626.973 240.756 650.035 275.689 616.784 210.793 709.094 308.222 708.099 284.709 779.039 327.05 906.534 375.242
threshold=1.0000000180025095e-35 1.0000000180025095e-35 -1.5218132033266352 -1.5370197479624965 -1.4983043515146159 -1.7846782469200184 -1.6739958850047203 -1.6673845822499063 -1.5501555054544187 -1.5500573796208397 -1.4327313262162711 -1.4326556375419424 -1.3153605853589425 -1.3152499135910209 -1.1978691209576817 -1.1978499898021486 -1.0804454668533403 -1.0804173928611973 -0.96361500209803685 -0.96296965243119959 -0.84994794590637757 -0.84562094798924148 -0.72828994739413844 -0.72818778644778892 -0.61466311796119499 -0.61079254214949397 -0.49351745098049571 -0.49338620184465004 -0.37604046081772263 -0.37598982039404399
decision_type=2 2 2 2 2 2 2 2 2 2 2 2 2 2 2 2 2 2 2 2 2 2 2 2 2 2 2 2 2 2
left_child=1 2 -1 -2 -5 -6 -7 -8 -9 -10 -11 -12 -13 -14 -15 -16 -17 -18 -19 -20 -21 -22 -23 -24 -25 -26 -27 -28 -29 -30
right_child=3 -3 -4 4 5 6 7 8 9 10 11 12 13 14 15 16 17 18 19 20 21 22 23 24 25 26 27 28 29 -31
leaf_value=0.12100474759094795 -0.098883489322318482 -0.038414808659609986 0.056317431967307589 0.20371127824292257 -0.092660775335331833 0.17670281595578707 -0.094203783794933507 0.1261778179266701 -0.0834295394177898 0.13410263257779187 -0.084392484022185063 0.13722980792420411 -0.089295318196907156 0.13729522502744348 -0.087343518366130357 0.13730298654345791 -0.088623654869990617 0.13797748837882862 -0.090941544965354934 0.13724350903085028 -0.079307989323694858 0.137554080609056 -0.090242637118190555 0.13785939778624762 -0.085105454071802367 0.13903111164586407 -0.089406113513782831 0.14534736671515155 -0.093074467084692747 -0.025830373170121337
leaf_weight=2167.3009923696518 305.04166302084923 1169.8816158771515 12271.236770272255 45.594192117452621 332.6250909268856 68.731988236308098 372.66714188456535 94.789983987808228 458.62413661181927 164.96561866998672 527.39764747023582 194.98185488581657 553.95827780663967 212.96773631870747 610.71450684964657 228.20439997315407 663.86631359159946 234.85014320909977 702.26218354701996 225.454350233078 802.88463446497917 258.35957726836205 794.5244053453207 257.96168671548367 862.53940629959106 280.56675198674202 851.79003049433231 303.59673970937729 867.76638348400593 18995.593378156424
leaf_count=14674 1549 5211 59864 189 1785 280 2003 577 2343 911 2663 1020 2823 1120 3096 1193 3383 1221 3602 1189 3990 1355 4067 1344 4360 1449 4373 1470 4317 81716
internal_value=0.000176276 0.0581992 0.0660273 -0.0297394 -0.0290356 -0.0293903 -0.028679 -0.0291572 -0.0283256 -0.0288296 -0.0279539 -0.0288943 -0.0278453 -0.0290069 -0.027777 -0.0290819 -0.0277306 -0.0291734 -0.0276219 -0.029165 -0.0273943 -0.0289234 -0.0272 -0.0290336 -0.0268644 -0.0287818 -0.0265009 -0.0287105 -0.0261469 -0.0287681
internal_weight=45881.7 15608.4 14438.5 30273.3 29968.2 29922.6 29590 29521.3 29148.6 29053.8 28595.2 28430.2 27902.8 27707.9 27153.9 26940.9 26330.2 26102 25438.1 25203.3 24501 24275.6 23472.7 23214.3 22419.8 22161.9 21299.3 21018.7 20167 19863.4
internal_count=219137 79749 74538 139388 137839 137650 135865 135585 133582 133005 130662 129751 127088 126068 123245 122125 119029 117836 114453 113232 109630 108441 104451 103096 99029 97685 93325 91876 87503 86033
is_linear=0
shrinkage=0.1


Tree=11
num_leaves=31
num_cat=0
split_feature=1 0 1 2 2 2 2 2 2 2 2 2 2 2 2 2 2 2 2 2 2 2 2 2 2 2 2 2 2 2
split_gain=6655.51 994.915 756.244 134.341 288.277 158.219 291.009 164.68 315.29 155.272 566.834 257.202 613.092 192.789 622.361 208.27 602.769 230.628 624.263 271.404 609.778 179.705 719.155 247.74 725.118 263.361 826.925 339.575 1020.98 370.107
threshold=1.0000000180025095e-35 1.0000000180025095e-35 -1.5218132033266352 -1.4819115093128488 -1.4269479134844461 -1.4267326902734008 -1.3719918792744294 -1.3717608853964542 -1.322816088266987 -1.3166967685310096 -1.2616593678451629 -1.2614935802403895 -1.2085294224367817 -1.2064862093865261 -1.1554995796927585 -1.1514417628370752 -1.0981452192475074 -1.0963632842262985 -1.0423528601959846 -1.041282695817574 -0.99099070814874102 -0.98623140589864067 -0.93541950729598555 -0.93112705202280932 -0.87813103159376327 -0.87600615465928378 -0.821031560825357 -0.82099616749241544 -0.76696253755776944 -0.76591164897988218
decision_type=2 2 2 2 2 2 2 2 2 2 2 2 2 2 2 2 2 2 2 2 2 2 2 2 2 2 2 2 2 2
left_child=1 2 -1 -2 -5 -6 -7 -8 -9 -10 -11 -12 -13 -14 -15 -16 -17 -18 -19 -20 -21 -22 -23 -24 -25 -26 -27 -28 -29 -30
right_child=3 -3 -4 4 5 6 7 8 9 10 11 12 13 14 15 16 17 18 19 20 21 22 23 24 25 26 27 28 29 -31
leaf_value=0.11842021819968454 -0.072348801043033081 -0.035035837778388694 0.052014661327652582 0.16506306601292003 -0.097076601902198842 0.14490047897716016 -0.098905874234732322 0.14337913944757585 -0.090909369101226073 0.17414319980609694 -0.11094541565007772 0.17443840477468942 -0.097779476487464767 0.17504133416610415 -0.10201992495658002 0.17267254854909209 -0.10568934310824825 0.17461237778339364 -0.11051158344629725 0.17174698880389103 -0.090571829350018368 0.18627949593254262 -0.10316268195721885 0.18790338220679492 -0.1070506189758334 0.20677560168856088 -0.11615402100775662 0.22629085525246728 -0.11832837203936115 -0.025823883925242694
leaf_weight=2001.6442309319973 649.16916055977345 1155.2357480227947 11973.73771572113 78.466598212718964 317.47925537824631 99.185148857533932 312.28251750767231 109.61779654026031 369.88959074020386 141.22461844980717 357.79022727906704 152.3501650094986 376.59709629416466 153.51245056837797 363.91022093594074 152.06331458687782 367.2481334656477 154.36810739338398 384.13929581642151 155.26258357614279 437.48940423130989 158.68925313651562 422.92697751522064 157.50511863827705 407.695855692029 151.64850677549839 424.16440300643444 159.47036901116371 441.11616507172585 22184.377686798573
leaf_count=14674 3309 5211 59864 359 1660 520 1688 573 1835 675 1816 734 1880 753 1827 750 1850 751 1959 759 2124 744 2075 736 2005 699 2030 747 2043 102487
internal_value=0.000189155 0.0541531 0.0615257 -0.0273587 -0.0263513 -0.0268707 -0.0260913 -0.0266864 -0.0258862 -0.0265471 -0.0256878 -0.0267117 -0.0256039 -0.0267305 -0.0257274 -0.0268895 -0.0258443 -0.027005 -0.025878 -0.0270924 -0.0258158 -0.0270454 -0.0259114 -0.0272943 -0.0259532 -0.0273704 -0.0259798 -0.0275006 -0.0258502 -0.0276274
internal_weight=44770.3 15130.6 13975.4 29639.6 28990.5 28912 28594.5 28495.3 28183.1 28073.4 27703.5 27562.3 27204.5 27052.2 26675.6 26522.1 26158.2 26006.1 25638.9 25484.5 25100.3 24945.1 24507.6 24348.9 23926 23768.5 23360.8 23209.1 22785 22625.5
internal_count=219137 79749 74538 139388 136079 135720 134060 133540 131852 131279 129444 128769 126953 126219 124339 123586 121759 121009 119159 118408 116449 115690 113566 112822 110747 110011 108006 107307 105277 104530
is_linear=0
shrinkage=0.1


Tree=12
num_leaves=31
num_cat=0
split_feature=1 1 0 3 3 4 2 2 2 2 3 3 3 3 3 3 3 3 3 3 3 3 3 3 3 3 3 3 3 3
split_gain=5549.94 913.592 664.503 132.181 325.099 129.92 85.7411 181.66 103.172 205.441 86.3428 239.745 98.8713 322.043 107.445 359.323 111.512 393.447 120.07 385.925 143.813 377.512 118.336 419.262 160.816 428.718 158.312 424.831 204.355 514.464
threshold=1.0000000180025095e-35 -1.5218132033266352 1.0000000180025095e-35 2.1921170503328793 2.0895560561073876 1.0000000180025095e-35 -1.4267326902734008 -1.3719918792744294 -1.3717608853964542 -1.322816088266987 -1.5500573796208397 -1.4327313262162711 -1.4326556375419424 -1.3153605853589425 -1.3152499135910209 -1.1978691209576817 -1.1978499898021486 -1.0804454668533403 -1.0804173928611973 -0.96361500209803685 -0.96296965243119959 -0.84994794590637757 -0.84562094798924148 -0.72828994739413844 -0.72818778644778892 -0.61466311796119499 -0.61079254214949397 -0.49351745098049571 -0.49338620184465004 -0.37604046081772263
decision_type=2 2 2 2 2 2 2 2 2 2 2 2 2 2 2 2 2 2 2 2 2 2 2 2 2 2 2 2 2 2
left_child=1 -1 -3 4 5 6 -2 -8 -9 -10 -11 -12 -13 -14 -15 -16 -17 -18 -19 -20 -21 -22 -23 -24 -25 -26 -27 -28 -29 -30
right_child=3 2 -4 -5 -6 -7 7 8 9 10 11 12 13 14 15 16 17 18 19 20 21 22 23 24 25 26 27 28 29 -31
leaf_value=0.11615663331561038 -0.061055747906247654 0.048002875703701986 -0.031935989338096472 -0.068482838286423958 0.24557711238436536 -0.011728794557656198 0.13732733573716591 -0.094388037843422645 0.1359013414112554 -0.057178573804157064 0.12578535298744009 -0.078030576064181734 0.13078064970735573 -0.078853757878788941 0.13036960166317729 -0.076884884617976212 0.13078137713192098 -0.077224478332237667 0.13070522144121247 -0.080174559732088119 0.13037548830427675 -0.071835549893003475 0.1303308331872737 -0.07969171794304164 0.13073529990245525 -0.077090138932384145 0.13066762127548046 -0.084266432361982335 0.13649754627925881 -0.026614051859264739
leaf_weight=1844.6380821466446 758.28206905722618 11692.186607956886 1141.3865686655045 683.63619440793991 44.669392824172974 6292.7221258580685 67.193154238164425 227.16860473155975 77.479938179254532 920.74807775020599 103.71210742741823 367.6223783493042 130.66646667569876 387.69132342934608 146.4297114610672 435.76776877045631 159.28406371176243 465.12709686160088 156.26298794895411 496.95777505636215 153.76935593783855 569.41141609847546 170.93644141405821 561.4200567305088 174.30330340564251 605.7494603395462 173.40858881175518 593.3580826818943 196.06257404386997 14071.83525429666
leaf_count=14674 4084 59864 5211 2994 190 28921 389 1324 445 5237 658 2000 756 2134 858 2381 920 2561 906 2756 903 3025 1005 3110 1006 3302 1001 3302 1040 62180
internal_value=0.000192201 0.0503518 0.0408933 -0.0250291 -0.0239871 -0.0244101 -0.0280095 -0.0268392 -0.027356 -0.0266349 -0.0272335 -0.0258631 -0.0266488 -0.0256875 -0.026735 -0.0256788 -0.0268824 -0.0257077 -0.0270632 -0.0257615 -0.0271376 -0.0256114 -0.0270128 -0.0254703 -0.0270966 -0.0252295 -0.0269676 -0.0249482 -0.026764 -0.0243727
internal_weight=43869.9 14678.2 12833.6 29191.7 28508 28463.4 22170.6 21412.4 21345.2 21118 21040.5 20119.8 20016.1 19648.4 19517.8 19130.1 18983.7 18547.9 18388.6 17923.5 17767.2 17270.3 17116.5 16547.1 16376.1 15814.7 15640.4 15034.7 14861.3 14267.9
internal_count=219137 79749 65075 139388 136394 136204 107283 103199 102810 101486 101041 95804 95146 93146 92390 90256 89398 87017 86097 83536 82630 79874 78971 75946 74941 71831 70825 67523 66522 63220
is_linear=0
shrinkage=0.1


Tree=13
num_leaves=31
num_cat=0
split_feature=1 1 0 2 2 3 3 3 3 3 3 3 3 3 3 3 3 3 3 3 3 3 3 3 3 3 3 3 3 3
split_gain=4625.73 874.643 552.546 113.055 216.544 112.741 1275.79 456.64 1362.55 487.539 1788.41 479.946 1729.41 605.248 1905.22 614.506 2122.69 487.356 2229.38 692.729 2509.24 704.347 2672.91 683.078 2521.92 703.694 2678.67 755.763 2651.64 557.689
threshold=1.0000000180025095e-35 -1.5218132033266352 1.0000000180025095e-35 -1.5370197479624965 -1.4983043515146159 1.267643771702899 1.1503271961036095 1.1467320525554576 1.0329569597953723 1.0320477475327288 0.91565508999355527 0.90375854230679775 0.79806291090670733 0.79801945725420598 0.68066966925401073 0.6755671921406825 0.5632528302150811 0.55381148085551846 0.44586640499757463 0.44570725117351284 0.3285959048168528 0.32842366094339059 0.21109054096822988 0.20638935399499372 0.093643269756071915 0.088365982034353058 -0.023786374659616697 -0.023812074186450646 -0.14118260298850002 -0.14129625041357127
decision_type=2 2 2 2 2 2 2 2 2 2 2 2 2 2 2 2 2 2 2 2 2 2 2 2 2 2 2 2 2 2
left_child=1 -1 -3 -2 -5 6 7 8 9 10 11 12 13 14 15 16 17 18 19 20 21 22 23 24 25 26 27 28 29 -6
right_child=3 2 -4 4 5 -7 -8 -9 -10 -11 -12 -13 -14 -15 -16 -17 -18 -19 -20 -21 -22 -23 -24 -25 -26 -27 -28 -29 -30 -31
leaf_value=0.1141607721782224 -0.086937254879437653 0.044258700701455857 -0.029092062851643192 0.19580879654926253 -0.023404481649025585 -0.039110337019198325 0.2528174007973058 -0.1121710468831838 0.25224798953414018 -0.11169284114088332 0.25828890914915131 -0.10583629241209297 0.25486303530182602 -0.11368391456185688 0.25398578642893332 -0.11008751831020221 0.25526525676354167 -0.096937695255223472 0.25531642457057119 -0.11138615590384196 0.25512655079268587 -0.10997268919942454 0.25424203978319176 -0.1067078333637191 0.25369888348618197 -0.10958280469853897 0.2498078130950433 -0.11149415190800274 0.25222294880474067 -0.10307111266962506
leaf_weight=1696.777044788003 273.22503164410591 11427.501359343529 1128.3784935772419 45.445634350180626 11516.747410394251 3630.0279590785503 169.93539924919605 550.58278691768646 182.35219699144363 592.88972425460815 228.87949272990227 672.93614096939564 226.38940259814262 711.3276901692152 250.96801351010799 783.30525204539299 276.68536885082722 867.39607830345631 289.04827202856541 875.49252226948738 324.81723919510841 931.85120061039925 346.41857580840588 996.03219394385815 326.51184870302677 970.37111328542233 354.65310354530811 1017.0095837265253 343.33656068146229 951.27698726952076
leaf_count=14674 1549 59864 5211 189 63277 15977 727 2431 782 2621 986 2974 974 3144 1079 3470 1187 3833 1239 3874 1394 4118 1491 4405 1404 4300 1520 4501 1473 4469
internal_value=0.000203725 0.0467734 0.0376668 -0.0229184 -0.0223032 -0.0226524 -0.0202392 -0.0221265 -0.0200639 -0.0221456 -0.0198632 -0.0226272 -0.020123 -0.0229357 -0.0199223 -0.0231693 -0.0198299 -0.0236146 -0.0203096 -0.0245128 -0.0203059 -0.025345 -0.0206571 -0.0264371 -0.0212722 -0.027197 -0.0215603 -0.0285201 -0.0219333 -0.0294828
internal_weight=42958.6 14252.7 12555.9 28705.9 28432.7 28387.2 24757.2 24587.3 24036.7 23854.3 23261.5 23032.6 22359.6 22133.2 21421.9 21171 20387.6 20111 19243.6 18954.5 18079 17754.2 16822.4 16475.9 15479.9 15153.4 14183 13828.4 12811.4 12468
internal_count=219137 79749 65075 139388 137839 137650 121673 120946 118515 117733 115112 114126 111152 110178 107034 105955 102485 101298 97465 96226 92352 90958 86840 85349 80944 79540 75240 73720 69219 67746
is_linear=0
shrinkage=0.1


Tree=14
num_leaves=31
num_cat=0
split_feature=1 1 0 3 3 3 3 3 3 3 3 3 3 3 3 3 3 3 3 3 3 3 3 3 3 3 3 3 3 3
split_gain=3861.72 835.616 458.953 113.047 238.606 127.706 190.051 113.561 329.798 126.59 400.777 164.194 438.56 168.99 470.518 192.401 489.61 214.53 470.235 165.551 536.677 249.035 534.36 225.631 591.855 259.978 679.337 332.662 1117.29 615.402
threshold=1.0000000180025095e-35 -1.5218132033266352 1.0000000180025095e-35 -1.7846782469200184 -1.6739958850047203 -1.6673845822499063 -1.5501555054544187 -1.5500573796208397 -1.4327313262162711 -1.4326556375419424 -1.3153605853589425 -1.3152499135910209 -1.1978691209576817 -1.1978499898021486 -1.0804454668533403 -1.0804173928611973 -0.96361500209803685 -0.96296965243119959 -0.84994794590637757 -0.84562094798924148 -0.72828994739413844 -0.72818778644778892 -0.61466311796119499 -0.61079254214949397 -0.49351745098049571 -0.49338620184465004 -0.37604046081772263 -0.37598982039404399 -0.26196135731644415 -0.2585301746939222
decision_type=2 2 2 2 2 2 2 2 2 2 2 2 2 2 2 2 2 2 2 2 2 2 2 2 2 2 2 2 2 2
left_child=1 -1 -3 -2 -5 -6 -7 -8 -9 -10 -11 -12 -13 -14 -15 -16 -17 -18 -19 -20 -21 -22 -23 -24 -25 -26 -27 -28 -29 -30
right_child=3 2 -4 4 5 6 7 8 9 10 11 12 13 14 15 16 17 18 19 20 21 22 23 24 25 26 27 28 29 -31
leaf_value=0.11238948985161541 -0.08196997007329454 0.040763346291021012 -0.026483630988882113 0.16783139476880427 -0.081966441718561475 0.1242450335065465 -0.072154693683259025 0.12965456758339555 -0.071565968834065172 0.13155751446220112 -0.07726793178950303 0.13165203183958518 -0.07517760446529051 0.13152408485520292 -0.076476869991918883 0.13234762813535206 -0.078024308658274089 0.1325105872253701 -0.066996338161330535 0.13231793191996391 -0.078322982967739721 0.13240583230236339 -0.072759194732008384 0.13395042706825375 -0.077017338691389534 0.13831374887637524 -0.082859182346379151 0.17109236231406608 -0.098136965342814797 -0.016118297232609786
leaf_weight=1558.2617390751839 301.05066385865211 11180.049491643906 1116.2284504473209 67.208691224455833 337.39044244587421 90.954197525978088 419.8574905693531 146.95427127927542 477.96603573858738 174.15990713238716 502.27078968286514 190.44124366343021 556.28646239638329 204.73543903231621 603.35102550685406 211.02488277852535 634.2914779484272 202.84371706843376 738.53608721494675 232.33462478220463 719.69866728782654 232.04808600246906 785.69654855132103 252.66719770431519 770.64953044056892 274.81771326065063 807.33498966693878 309.58777835965157 966.41787265241146 17132.954968169332
leaf_count=14674 1810 59864 5211 281 2033 585 2367 914 2686 1022 2862 1124 3146 1199 3438 1226 3649 1201 4057 1368 4126 1352 4423 1455 4440 1477 4393 1337 4585 76832
internal_value=0.000132628 0.0434014 0.0346588 -0.0210175 -0.0203631 -0.0208153 -0.0200688 -0.0205453 -0.0197465 -0.0205602 -0.0196403 -0.0206405 -0.0195392 -0.0206624 -0.0194532 -0.0206958 -0.0193092 -0.0206393 -0.0190855 -0.0204096 -0.0188794 -0.0204581 -0.018524 -0.0201683 -0.018154 -0.0200508 -0.0177984 -0.020031 -0.0172757 -0.0204977
internal_weight=42198.1 13854.5 12296.3 28343.5 28042.5 27975.3 27637.9 27546.9 27127.1 26980.1 26502.1 26328 25825.7 25635.3 25079 24874.3 24270.9 24059.9 23425.6 23222.7 22484.2 22251.9 21532.2 21300.1 20514.4 20261.8 19491.1 19216.3 18409 18099.4
internal_count=219137 79749 65075 139388 137578 137297 135264 134679 132312 131398 128712 127690 124828 123704 120558 119359 115921 114695 111046 109845 105788 104420 100294 98942 94519 93064 88624 87147 82754 81417
is_linear=0
shrinkage=0.1


Tree=15
num_leaves=31
num_cat=0
split_feature=1 1 0 3 3 3 3 3 3 3 3 3 3 3 3 3 3 3 3 3 3 3 3 3 3 3 3 3 3 3
split_gain=3218.47 796.385 380.765 102.926 262.622 116.945 1655.42 582.215 2010.98 744.781 2040.21 681.927 1929.49 640.469 2085.7 638.238 1973.39 613.019 1763.98 432.15 1007.5 415.872 1703.47 504.342 1543.07 484.686 1405.59 376.061 1473.3 358.539
threshold=1.0000000180025095e-35 -1.5218132033266352 1.0000000180025095e-35 2.1921170503328793 2.0895560561073876 -0.2585301746939222 -0.14129625041357127 -0.14118260298850002 -0.023812074186450646 -0.023786374659616697 0.088365982034353058 0.093643269756071915 0.20638935399499372 0.21109054096822988 0.32842366094339059 0.3285959048168528 0.44570725117351284 0.44586640499757463 0.55381148085551846 -0.26196135731644415 -0.37598982039404399 0.5632528302150811 0.6755671921406825 0.68066966925401073 0.79801945725420598 0.79806291090670733 0.90375854230679775 0.91565508999355527 1.0320477475327288 1.0329569597953723
decision_type=2 2 2 2 2 2 2 2 2 2 2 2 2 2 2 2 2 2 2 2 2 2 2 2 2 2 2 2 2 2
left_child=1 -1 -3 4 5 19 -7 -8 -9 -10 -11 -12 -13 -14 -15 -16 -17 -18 -19 20 -2 -20 -23 -24 -25 -26 -27 -28 -29 -30
right_child=3 2 -4 -5 -6 6 7 8 9 10 11 12 13 14 15 16 17 18 21 -21 -22 22 23 24 25 26 27 28 29 -31
leaf_value=0.11080735533847286 -0.026414536324728663 0.037501286472843648 -0.024092422324603287 -0.058379463606370932 0.22135346896782823 0.19915475652163583 -0.095677842520361878 0.22170180564531813 -0.10312531422574873 0.2201172437519775 -0.10129694754000791 0.22259215976244678 -0.097706139018669536 0.22350239609497669 -0.10133752918749234 0.22356138438227791 -0.10306554191100772 0.22352373288803098 -0.089111464437393803 -0.09209954484936915 0.16037600346175163 0.22329613190277292 -0.1018821502543492 0.22263252406256939 -0.10461153586302788 0.22318456243061713 -0.09745838473322925 0.22601101865757678 -0.10313944491008593 -0.018444123628772253
leaf_weight=1429.0735789388418 9467.0077251195908 10949.7908629179 1104.9331003278494 658.99082246422768 45.618063032627106 358.15499249100685 915.09962171316147 354.87595143914223 986.5258903503418 364.91728146374226 947.84107364714146 337.33363634347916 972.44208070635796 360.56481438875198 905.75402210652828 338.73175626993179 850.78404597938061 301.50176978111267 846.89719903469086 928.77809138596058 297.84289631992579 288.01977360248566 757.81849658489227 260.79739420115948 691.13492095470428 235.63653238117695 653.37612324953079 237.80574594438076 575.28049719333649 3810.6701606810093
leaf_count=14674 56634 59864 5211 2994 190 1480 4519 1479 4562 1523 4391 1407 4488 1506 4179 1408 3936 1251 3891 4585 1337 1196 3504 1087 3195 982 3009 990 2657 17008
internal_value=0.000143638 0.0402233 0.0318556 -0.019331 -0.0183812 -0.0187855 -0.0134679 -0.0182292 -0.013529 -0.0191986 -0.0131715 -0.0195377 -0.0133004 -0.0198838 -0.013075 -0.0210069 -0.013619 -0.0220673 -0.0141088 -0.0269169 -0.0207171 -0.0226816 -0.0151909 -0.0247013 -0.0156538 -0.0256708 -0.015774 -0.0264441 -0.0164091 -0.0295531
internal_weight=41234 13483.8 12054.7 27750.2 27091.2 27045.6 16352 15993.8 15078.7 14723.8 13737.3 13372.4 12424.5 12087.2 11114.8 10754.2 9848.45 9509.72 8658.94 10693.6 9764.85 8357.44 7510.54 7222.52 6464.7 6203.9 5512.77 5277.13 4623.76 4385.95
internal_count=219137 79749 65075 139388 136394 136204 73648 72168 67649 66170 61608 60085 55694 54287 49799 48293 44114 42706 38770 62556 57971 37519 33628 32432 28928 27841 24646 23664 20655 19665
is_linear=0
shrinkage=0.1


Tree=16
num_leaves=31
num_cat=0
split_feature=1 1 0 3 3 3 3 3 3 3 3 3 3 3 3 3 3 3 3 3 3 3 3 3 3 3 3 3 3 3
split_gain=2683.83 756.954 315.505 97.4147 202.354 110.034 165.596 95.6344 286.843 106.427 348.15 139.319 381.035 142.775 408.877 162.924 425.424 182.107 408.894 137.261 466.792 210.912 464.919 188.963 514.953 219.422 589.631 280.66 798.093 451.234
threshold=1.0000000180025095e-35 -1.5218132033266352 1.0000000180025095e-35 -1.7846782469200184 -1.6739958850047203 -1.6673845822499063 -1.5501555054544187 -1.5500573796208397 -1.4327313262162711 -1.4326556375419424 -1.3153605853589425 -1.3152499135910209 -1.1978691209576817 -1.1978499898021486 -1.0804454668533403 -1.0804173928611973 -0.96361500209803685 -0.96296965243119959 -0.84994794590637757 -0.84562094798924148 -0.72828994739413844 -0.72818778644778892 -0.61466311796119499 -0.61079254214949397 -0.49351745098049571 -0.49338620184465004 -0.37604046081772263 -0.37598982039404399 -0.26196135731644415 -0.2585301746939222
decision_type=2 2 2 2 2 2 2 2 2 2 2 2 2 2 2 2 2 2 2 2 2 2 2 2 2 2 2 2 2 2
left_child=1 -1 -3 -2 -5 -6 -7 -8 -9 -10 -11 -12 -13 -14 -15 -16 -17 -18 -19 -20 -21 -22 -23 -24 -25 -26 -27 -28 -29 -30
right_child=3 2 -4 4 5 6 7 8 9 10 11 12 13 14 15 16 17 18 19 20 21 22 23 24 25 26 27 28 29 -31
leaf_value=0.10938489392402749 -0.07623184128985544 0.034459273034009162 -0.021901866999037938 0.15894821793768529 -0.076238315680876523 0.1219943807169853 -0.066010862582223204 0.12690279584003381 -0.065413717356699305 0.12851498645292897 -0.071154883546690237 0.12860447294180294 -0.069031202008014533 0.1284771353238281 -0.070371353568844872 0.12921332902449642 -0.071962210729945977 0.12943990408953351 -0.060793777922016227 0.12923104558575008 -0.072227557417078744 0.12929454021026451 -0.066597085916004953 0.13070421921180583 -0.07095521344056735 0.13443567892788505 -0.076487949110375666 0.15177518902378095 -0.086532830928801596 -0.013519437243437408
leaf_weight=1309.0342474430799 282.24677966535091 10736.380252480507 1094.4740401804447 65.07600799202919 316.27859905362129 85.555315509438515 397.87928245961666 138.52847968786955 453.18039745092392 164.43188137561083 474.27182406187057 179.80499258637428 526.16307540237904 193.30804905295372 569.92275570333004 199.32218853384256 598.28065636754036 191.49423133581877 703.12319622933865 219.37512586265802 679.01861673593521 219.13793571293354 744.45890018343925 238.72693079710007 727.30932030081749 260.46491125226021 762.44239726662636 283.9603219628334 891.63722024857998 16698.863742634654
leaf_count=14674 1810 59864 5211 281 2033 585 2367 914 2686 1022 2862 1124 3146 1199 3438 1226 3649 1201 4057 1368 4126 1352 4423 1455 4440 1477 4393 1337 4585 76832
internal_value=0.000104111 0.037229 0.0292453 -0.0177881 -0.0171767 -0.0176025 -0.0169054 -0.0173535 -0.0166123 -0.0173776 -0.0165247 -0.0174651 -0.0164419 -0.0174975 -0.0163762 -0.0175435 -0.0162578 -0.0175066 -0.0160663 -0.0173087 -0.0159013 -0.0173817 -0.0155936 -0.0171343 -0.0152805 -0.0170563 -0.0149819 -0.0170701 -0.0145357 -0.0172204
internal_weight=40404.2 13139.9 11830.9 27264.3 26982 26916.9 26600.7 26515.1 26117.2 25978.7 25525.5 25361.1 24886.8 24707 24180.8 23987.5 23417.6 23218.3 22620 22428.5 21725.4 21506 20827 20607.9 19863.4 19624.7 18897.4 18636.9 17874.5 17590.5
internal_count=219137 79749 65075 139388 137578 137297 135264 134679 132312 131398 128712 127690 124828 123704 120558 119359 115921 114695 111046 109845 105788 104420 100294 98942 94519 93064 88624 87147 82754 81417
is_linear=0
shrinkage=0.1


Tree=17
num_leaves=31
num_cat=0
split_feature=1 1 0 3 3 3 3 3 3 3 3 3 3 3 3 3 3 3 3 3 3 3 3 3 3 3 3 3 3 3
split_gain=2231.83 717.424 261.097 88.6074 1015.44 400.709 1083.73 360.764 1139.04 352.947 1107.79 445.317 1220.94 457.021 1356.05 360.237 1429.06 518.962 1610.82 522.615 1724.14 501.581 1609.99 531.64 1719.36 570.261 1698.07 429.621 1451.64 334.065
threshold=1.0000000180025095e-35 -1.5218132033266352 1.0000000180025095e-35 1.267643771702899 1.1503271961036095 1.1467320525554576 1.0329569597953723 1.0320477475327288 0.91565508999355527 0.90375854230679775 0.79806291090670733 0.79801945725420598 0.68066966925401073 0.6755671921406825 0.5632528302150811 0.55381148085551846 0.44586640499757463 0.44570725117351284 0.3285959048168528 0.32842366094339059 0.21109054096822988 0.20638935399499372 0.093643269756071915 0.088365982034353058 -0.023786374659616697 -0.023812074186450646 -0.14118260298850002 -0.14129625041357127 -0.2585301746939222 1.2678148403396008
decision_type=2 2 2 2 2 2 2 2 2 2 2 2 2 2 2 2 2 2 2 2 2 2 2 2 2 2 2 2 2 2
left_child=1 -1 -3 4 5 6 7 8 9 10 11 12 13 14 15 16 17 18 19 20 21 22 23 24 25 26 27 28 -2 -5
right_child=3 2 -4 29 -6 -7 -8 -9 -10 -11 -12 -13 -14 -15 -16 -17 -18 -19 -20 -21 -22 -23 -24 -25 -26 -27 -28 -29 -30 -31
leaf_value=0.10809735564795249 -0.023164941532064273 0.031625607506737735 -0.019896778502550463 -0.11266181596180631 0.22556529620477531 -0.10189794443667088 0.22531739150655083 -0.095849445074180181 0.20278253491244144 -0.090221720765980937 0.20082017413576284 -0.097304068125428814 0.20043410345637078 -0.094621213583754332 0.2008368672151252 -0.082075204106890287 0.20096716714487217 -0.095813368226976822 0.2010434737501739 -0.094045901095883497 0.20111907402261731 -0.090486775612189055 0.20042272349151269 -0.094044386779469469 0.19876125515087928 -0.095838737410078825 0.19981572498559808 -0.089254681975574679 0.18293777292529398 -0.019551819955843385
leaf_weight=1197.8504126816988 10073.616068162024 10539.258349299431 1084.822306573391 439.3859089910984 175.46848697960377 529.50238798558712 187.81928744912148 550.50306586921215 239.97041609883308 627.01286515593529 237.15633042156696 660.93879054486752 262.346186414361 725.49001136422157 289.99086457490921 815.53552523255348 303.66968169808388 813.87179015576839 341.0987906306982 867.65426425635815 362.8649934977293 932.89221595227718 339.29731824994087 907.63762308657169 366.07459071278572 944.01188643276691 356.62094196677208 871.63553901016712 353.73763553798199 3132.4394498318434
leaf_count=14674 62556 59864 5211 2003 730 2472 784 2657 990 3009 982 3195 1087 3504 1196 3891 1251 3936 1408 4179 1506 4488 1407 4391 1523 4562 1479 4519 1480 14203
internal_value=0.000117102 0.0344106 0.0268173 -0.0163463 -0.0140832 -0.0159146 -0.0138849 -0.0159047 -0.0138759 -0.0162994 -0.0140739 -0.0165491 -0.0138708 -0.0167297 -0.0137461 -0.0170826 -0.0141107 -0.0178362 -0.0140399 -0.0185199 -0.0142945 -0.0194555 -0.0147931 -0.0200566 -0.0148772 -0.0210843 -0.0150298 -0.0218108 -0.0161731 -0.0310057
internal_weight=39530.2 12821.9 11624.1 26708.2 23136.4 22960.9 22431.4 22243.6 21693.1 21453.2 20826.1 20589 19928 19665.7 18940.2 18650.2 17834.7 17531 16717.1 16376 15508.4 15145.5 14212.6 13873.3 12965.7 12599.6 11655.6 11299 10427.4 3571.83
internal_count=219137 79749 65075 139388 123182 122452 119980 119196 116539 115549 112540 111558 108363 107276 103772 102576 98685 97434 93498 92090 87911 86405 81917 80510 76119 74596 70034 68555 64036 16206
is_linear=0
shrinkage=0.1


Tree=18
num_leaves=31
num_cat=0
split_feature=1 1 0 3 3 3 3 3 3 3 4 3 3 3 3 3 3 3 3 3 3 3 3 3 3 3 3 3 3 3
split_gain=1857.8 677.956 215.793 88.5616 84.2763 213.513 85.028 171.683 96.0676 143.663 86.2981 81.5925 165.673 66.9307 219.064 68.5629 243.897 71.4516 265.362 75.9112 261.216 92.2679 264.782 74.5522 287.599 103.251 293.972 99.646 295.733 137.908
threshold=1.0000000180025095e-35 -1.5218132033266352 1.0000000180025095e-35 -0.72818778644778892 2.1921170503328793 2.0895560561073876 -1.7846782469200184 -1.6739958850047203 -1.6673845822499063 -1.5501555054544187 1.0000000180025095e-35 -1.5500573796208397 -1.4327313262162711 -1.4326556375419424 -1.3153605853589425 -1.3152499135910209 -1.1978691209576817 -1.1978499898021486 -1.0804454668533403 -1.0804173928611973 -0.96361500209803685 -0.96296965243119959 -0.84994794590637757 -0.84562094798924148 -0.72828994739413844 -0.72818778644778892 -0.61466311796119499 -0.61079254214949397 -0.49351745098049571 -0.49338620184465004
decision_type=2 2 2 2 2 2 2 2 2 2 2 2 2 2 2 2 2 2 2 2 2 2 2 2 2 2 2 2 2 2
left_child=1 -1 3 -3 5 6 -2 -8 -9 -10 11 -11 -13 -14 -15 -16 -17 -18 -19 -20 -21 -22 -23 -24 -25 -26 -27 -28 -29 -30
right_child=4 2 -4 -5 -6 -7 7 8 9 10 -12 12 13 14 15 16 17 18 19 20 21 22 23 24 25 26 27 28 29 -31
leaf_value=0.10692366647393957 -0.070879484857591935 0.013168935352245781 -0.018063099056833665 0.034394123067231865 -0.050935749508734175 0.20145247042469708 0.15151256433775032 -0.070893982716626433 0.11993228802457792 -0.07091371943002811 -0.0032495629492594706 0.11955091354732293 -0.061722184474332364 0.12253269350312453 -0.061360908520777614 0.12250543267857472 -0.059783313746466948 0.12264724950726247 -0.059738739793848916 0.12276762133690616 -0.062631454412956172 0.12373562643755148 -0.05471298660110388 0.12311777121444417 -0.062335185273563222 0.12305628189973572 -0.059434393929903198 0.12388645562908951 -0.067571942647267305 -0.015458867767039381
leaf_weight=1095.1504625976086 265.17935986816883 2637.3568865507841 1075.9415593296289 7720.3635527640581 638.76963284611702 45.844689816236496 62.547738313674927 297.12091457843781 80.197749875485897 279.96618762612343 5637.4540755748749 89.043597273528576 331.32721041142941 112.83748611062765 345.4158703237772 125.55556339770555 388.35553126782179 136.15010064840317 415.44152757525444 133.67072783410549 442.61093982309103 133.80457235872746 521.49109429121017 146.62245788425207 499.24693592637777 150.27156707644463 546.24678871035576 149.72655285149813 527.36471392214298 13691.424381501973
leaf_count=14674 1810 15243 5211 44621 2994 190 281 2033 585 1823 27951 691 2134 795 2271 892 2520 953 2729 938 2942 948 3235 1042 3308 1051 3524 1045 3524 67179
internal_value=9.01808e-05 0.0317611 0.0245618 0.0289896 -0.0150585 -0.0141617 -0.0145492 -0.0139575 -0.0143685 -0.0136935 -0.0141256 -0.0173245 -0.0165302 -0.0171748 -0.0163755 -0.0172295 -0.016383 -0.0173582 -0.0164164 -0.0175071 -0.0164716 -0.0175789 -0.0163605 -0.0175153 -0.0162806 -0.0175938 -0.0161111 -0.0175132 -0.0159195 -0.0173917
internal_weight=38722.5 12528.8 11433.7 10357.7 26193.7 25554.9 25509.1 25243.9 25181.3 24884.2 24804 19166.6 18886.6 18797.6 18466.2 18353.4 18008 17882.4 17494.1 17357.9 16942.5 16808.8 16366.2 16232.4 15710.9 15564.3 15065 14914.8 14368.5 14218.8
internal_count=219137 79749 65075 59864 139388 136394 136204 134394 134113 132080 131495 103544 101721 101030 98896 98101 95830 94938 92418 91465 88736 87798 84856 83908 80673 79631 76323 75272 71748 70703
is_linear=0
shrinkage=0.1


Tree=19
num_leaves=31
num_cat=0
split_feature=1 1 0 2 2 2 2 2 2 2 2 2 2 2 2 2 2 2 2 2 2 2 2 2 2 2 2 2 2 2
split_gain=1538.81 638.713 178.141 88.7281 81.2457 344.549 178.447 366.88 127.747 377.941 137.281 369.108 153.174 379.539 189.03 376.436 113.021 445.142 168.381 458.729 178.561 528.606 232.793 633.381 249.115 808.049 330.989 840.852 306.555 774.57
threshold=1.0000000180025095e-35 -1.5218132033266352 1.0000000180025095e-35 3.4844259771106176 -1.3166967685310096 -1.2616593678451629 -1.2614935802403895 -1.2085294224367817 -1.2064862093865261 -1.1554995796927585 -1.1514417628370752 -1.0981452192475074 -1.0963632842262985 -1.0423528601959846 -1.041282695817574 -0.99099070814874102 -0.98623140589864067 -0.93541950729598555 -0.93112705202280932 -0.87813103159376327 -0.87600615465928378 -0.821031560825357 -0.82099616749241544 -0.76696253755776944 -0.76591164897988218 -0.71084862218725353 -0.71074024039345407 -0.65636758959019836 -0.65572945506927216 -0.60519234889440432
decision_type=2 2 2 2 2 2 2 2 2 2 2 2 2 2 2 2 2 2 2 2 2 2 2 2 2 2 2 2 2 2
left_child=1 -1 3 -3 -2 -6 -7 -8 -9 -10 -11 -12 -13 -14 -15 -16 -17 -18 -19 -20 -21 -22 -23 -24 -25 -26 -27 -28 -29 -30
right_child=4 2 -4 -5 5 6 7 8 9 10 11 12 13 14 15 16 17 18 19 20 21 22 23 24 25 26 27 28 29 -31
leaf_value=0.10584573987338619 -0.035950953876350097 0.026756263001676578 -0.016387762582297082 -0.3831429763928334 0.15822292295271598 -0.091554775404410926 0.15763062659384872 -0.077139079169651334 0.1595212214311317 -0.081044844463238411 0.15813716663960989 -0.084746899007836177 0.15892547220024208 -0.091207791446353215 0.15758173871862988 -0.068587868479300845 0.16782663126511388 -0.082643713367079014 0.17069515329414497 -0.086296954355943867 0.18513037907626914 -0.094894261076808095 0.19639303699235749 -0.095519911024993229 0.21881450335784455 -0.10321787894837481 0.21826344084358895 -0.10211725177526343 0.21485555609044671 -0.01402610384171624
leaf_weight=1000.5108534693718 1549.1878007426858 10185.667007401586 1067.7911098748446 5.2836252450942984 117.87284483760595 286.9330715239048 126.49637814611197 307.71209633350372 127.34433914721012 294.68349200487137 126.28548859059811 296.15249620378017 128.62885562330484 307.49000477045774 129.73395718634129 363.12054118514061 136.28402439504862 346.26401904225349 136.04342974722385 331.86568729579449 134.65091494470835 346.7559506893158 144.44632740318775 365.87609194219112 150.20263274013996 407.31863108277321 157.12325072288513 386.98799267411232 149.04906184971333 18470.778139472008
leaf_count=14674 9944 59833 5211 31 675 1816 734 1880 753 1827 750 1850 751 1959 759 2124 744 2075 736 2005 699 2030 747 2043 726 2182 771 2068 728 96012
internal_value=0.000101526 0.0292764 0.0224721 0.0265437 -0.0137478 -0.0123309 -0.013163 -0.0122208 -0.0131256 -0.0122852 -0.0132238 -0.0123554 -0.0132961 -0.0123595 -0.0133403 -0.0122596 -0.0132599 -0.0123325 -0.0134731 -0.0123423 -0.0135255 -0.0123596 -0.0136518 -0.0122594 -0.0137598 -0.012243 -0.0140162 -0.0121203 -0.0140248 -0.0121939
internal_weight=38084.5 12259.3 11258.7 10191 25825.3 24276.1 24158.2 23871.3 23744.8 23437.1 23309.7 23015.1 22888.8 22592.6 22464 22156.5 22026.8 21663.6 21527.4 21181.1 21045.1 20713.2 20578.5 20231.8 20087.3 19721.5 19571.3 19163.9 19006.8 18619.8
internal_count=219137 79749 65075 59864 139388 129444 128769 126953 126219 124339 123586 121759 121009 119159 118408 116449 115690 113566 112822 110747 110011 108006 107307 105277 104530 102487 101761 99579 98808 96740
is_linear=0
shrinkage=0.1


Tree=20
num_leaves=31
num_cat=0
split_feature=1 1 0 3 2 2 2 2 2 2 2 2 2 2 2 2 2 2 2 2 2 2 2 2 2 2 2 2 2 2
split_gain=1274.08 599.948 146.875 76.1839 74.3163 142.885 77.5241 183.602 93.8362 161.338 95.8375 175.076 95.7604 295.753 155.501 315.255 109.794 324.569 118.54 317.27 132.792 325.933 164.792 323.2 96.2616 379.88 145.161 390.404 154.661 446.301
threshold=1.0000000180025095e-35 -1.5218132033266352 1.0000000180025095e-35 -0.72818778644778892 -1.5370197479624965 -1.4983043515146159 -1.4819115093128488 -1.4269479134844461 -1.4267326902734008 -1.3719918792744294 -1.3717608853964542 -1.322816088266987 -1.3166967685310096 -1.2616593678451629 -1.2614935802403895 -1.2085294224367817 -1.2064862093865261 -1.1554995796927585 -1.1514417628370752 -1.0981452192475074 -1.0963632842262985 -1.0423528601959846 -1.041282695817574 -0.99099070814874102 -0.98623140589864067 -0.93541950729598555 -0.93112705202280932 -0.87813103159376327 -0.87600615465928378 -0.821031560825357
decision_type=2 2 2 2 2 2 2 2 2 2 2 2 2 2 2 2 2 2 2 2 2 2 2 2 2 2 2 2 2 2
left_child=1 -1 3 -3 -2 -6 -7 -8 -9 -10 -11 -12 -13 -14 -15 -16 -17 -18 -19 -20 -21 -22 -23 -24 -25 -26 -27 -28 -29 -30
right_child=4 2 -4 -5 5 6 7 8 9 10 11 12 13 14 15 16 17 18 19 20 21 22 23 24 25 26 27 28 29 -31
leaf_value=0.10484782149018466 -0.069865346594308056 0.0094612455994806006 -0.014858561737794859 0.029398867548255599 0.17169097866552308 -0.067496386483167567 0.152906961972192 -0.073682854812324589 0.13394778996860704 -0.075648718731378461 0.13277844674732062 -0.068173223980741895 0.15146033127461012 -0.087226059323273777 0.15108420356244168 -0.072621165661255302 0.15280502230147286 -0.076571398059584003 0.15166097031582121 -0.080320801120117302 0.15227549940566373 -0.086855812608601091 0.15097566728073414 -0.06404308060046271 0.15968304633623343 -0.077943424202872869 0.1619326181030511 -0.081683312885994452 0.17406671682041655 -0.012400705415689189
leaf_weight=913.47808520495892 224.33086180686951 2579.2813545167446 1060.3272412866354 7458.7782506197691 42.250527270138264 252.46805165708065 67.493187993764877 246.17880626767874 75.887600585818291 234.93866489082575 83.848222576081753 299.41902845352888 111.16833390668035 271.84791902452707 119.15851280093193 294.85301635414362 120.02530618011951 281.41224589943886 118.8921315819025 281.97348619997501 121.20489807426929 291.45063624531031 122.25571708381176 350.66660836338997 129.27272261679173 331.22754055261612 129.40691098570824 316.36779083311558 129.16995892673731 20411.348661154509
leaf_count=14674 1549 15243 5211 44621 189 1571 359 1660 520 1688 573 1835 675 1816 734 1880 753 1827 750 1850 751 1959 759 2124 744 2075 736 2005 699 107307
internal_value=0.000103543 0.0269487 0.020537 0.0242759 -0.0125626 -0.0120531 -0.0123613 -0.0118032 -0.0122501 -0.011636 -0.012086 -0.0114719 -0.011971 -0.0112678 -0.0120273 -0.0111592 -0.0119843 -0.0112115 -0.0120669 -0.0112684 -0.012125 -0.0112639 -0.0121563 -0.0111631 -0.0120725 -0.0112228 -0.0122592 -0.0112225 -0.0122968 -0.0112281
internal_weight=37470.4 12011.9 11098.4 10038.1 25458.5 25234.2 25191.9 24939.5 24872 24625.8 24549.9 24315 24231.1 23931.7 23820.5 23548.7 23429.5 23134.7 23014.6 22733.2 22614.3 22332.4 22211.2 21919.7 21797.5 21446.8 21317.5 20986.3 20856.9 20540.5
internal_count=219137 79749 65075 59864 139388 137839 137650 136079 135720 134060 133540 131852 131279 129444 128769 126953 126219 124339 123586 121759 121009 119159 118408 116449 115690 113566 112822 110747 110011 108006
is_linear=0
shrinkage=0.1


Tree=21
num_leaves=31
num_cat=0
split_feature=1 1 0 3 3 3 3 3 3 3 3 3 3 3 3 3 3 3 3 3 3 3 3 3 3 3 3 3 3 3
split_gain=1052.87 561.876 120.951 73.33 582.56 188.668 650.513 270.258 801.99 192.869 701.343 370.83 960.23 348.249 774.27 336.021 833.093 300.376 901.884 292.897 874.366 372.674 966.27 378.737 1070.41 295.507 1127.69 432.124 1270.15 437.466
threshold=1.0000000180025095e-35 -1.5218132033266352 1.0000000180025095e-35 1.8547142773781349 1.7376574815433712 1.7292198847940512 1.6199450924406174 1.6198645152337641 1.5025044968794139 1.4820037198640412 1.3851637929412239 1.3850883855109373 1.2678148403396008 1.267643771702899 1.1503271961036095 1.1467320525554576 1.0329569597953723 1.0320477475327288 0.91565508999355527 0.90375854230679775 0.79806291090670733 0.79801945725420598 0.68066966925401073 0.6755671921406825 0.5632528302150811 0.55381148085551846 0.44586640499757463 0.44570725117351284 0.3285959048168528 0.32842366094339059
decision_type=2 2 2 2 2 2 2 2 2 2 2 2 2 2 2 2 2 2 2 2 2 2 2 2 2 2 2 2 2 2
left_child=1 -1 -3 4 5 6 7 8 9 10 11 12 13 14 15 16 17 18 19 20 21 22 23 24 25 26 27 28 29 -2
right_child=3 2 -4 -5 -6 -7 -8 -9 -10 -11 -12 -13 -14 -15 -16 -17 -18 -19 -20 -21 -22 -23 -24 -25 -26 -27 -28 -29 -30 -31
leaf_value=0.10391611420767106 -0.0093888544091487169 0.022176929034727635 -0.013464099675583008 -0.034657180726718459 0.26633109701215746 -0.097168841974513476 0.25917356459232543 -0.10660775718855703 0.26639317037870741 -0.086778647520411839 0.26908095063129989 -0.10937275486366436 0.27299916833714438 -0.10243456666539311 0.20116659817279339 -0.092611597066632523 0.2021004001289041 -0.086673443017820845 0.1864693614646572 -0.081086441008490148 0.18474381310505048 -0.088258784369298585 0.18471294457780374 -0.085327277502991711 0.18486515376324514 -0.072860478976076615 0.18482168521474673 -0.086582887851695059 0.18485858387194837 -0.084994143387927976
leaf_weight=833.58389818668365 14514.040198545903 9897.9735375642776 1053.5054601430893 1291.8385867476463 75.942136377096176 251.86239105463028 89.337332352995872 293.08559596538544 104.52666993439198 333.0226094275713 89.614199042320251 378.53093180060387 119.62585186958313 409.59531077742577 173.29805798828602 493.60395658016205 185.05278532207012 511.8837770819664 233.07131147384644 585.23953588306904 229.51098101586103 613.95664252340794 253.7983640357852 673.96775975823402 280.44119456410408 764.53082160651684 294.03835617005825 756.38682650029659 330.185009367764 807.9160088300705
leaf_count=14674 87911 59864 5211 6146 338 1188 396 1383 463 1571 397 1788 533 2003 730 2472 784 2657 990 3009 982 3195 1087 3504 1196 3891 1251 3936 1408 4179
internal_value=0.000109954 0.0247725 0.0187483 -0.0114522 -0.0101951 -0.0110786 -0.0101566 -0.0111836 -0.00997478 -0.0112291 -0.0101206 -0.0112273 -0.00955609 -0.0110848 -0.00936063 -0.0110554 -0.00914151 -0.0110165 -0.00911218 -0.0113796 -0.00928956 -0.0115982 -0.00907801 -0.0117479 -0.00895372 -0.0120656 -0.00928278 -0.0127611 -0.00919368 -0.0133755
internal_weight=36923 11785.1 10951.5 25137.9 23846.1 23770.1 23518.3 23428.9 23135.8 23031.3 22698.3 22608.7 22230.1 22110.5 21700.9 21527.6 21034 20849 20337.1 20104 19518.8 19289.3 18675.3 18421.5 17747.5 17467.1 16702.6 16408.5 15652.1 15322
internal_count=219137 79749 65075 139388 133242 132904 131716 131320 129937 129474 127903 127506 125718 125185 123182 122452 119980 119196 116539 115549 112540 111558 108363 107276 103772 102576 98685 97434 93498 92090
is_linear=0
shrinkage=0.1


Tree=22
num_leaves=31
num_cat=0
split_feature=1 1 0 3 3 3 3 3 3 3 3 3 3 3 3 3 3 3 3 3 3 3 3 3 3 3 3 3 3 3
split_gain=871.856 524.736 99.4692 68.8529 137.019 78.0254 116.221 67.6805 215.196 75.5868 260.953 103.308 285.269 105.051 306.219 118.985 318.987 134.256 304.554 95.8818 347.868 157.612 349.705 135.714 390.186 159.412 486.529 230.531 654.548 366.769
threshold=1.0000000180025095e-35 -1.5218132033266352 1.0000000180025095e-35 -1.7846782469200184 -1.6739958850047203 -1.6673845822499063 -1.5501555054544187 -1.5500573796208397 -1.4327313262162711 -1.4326556375419424 -1.3153605853589425 -1.3152499135910209 -1.1978691209576817 -1.1978499898021486 -1.0804454668533403 -1.0804173928611973 -0.96361500209803685 -0.96296965243119959 -0.84994794590637757 -0.84562094798924148 -0.72828994739413844 -0.72818778644778892 -0.61466311796119499 -0.61079254214949397 -0.49351745098049571 -0.49338620184465004 -0.37604046081772263 -0.37598982039404399 -0.26196135731644415 -0.2585301746939222
decision_type=2 2 2 2 2 2 2 2 2 2 2 2 2 2 2 2 2 2 2 2 2 2 2 2 2 2 2 2 2 2
left_child=1 -1 -3 -2 -5 -6 -7 -8 -9 -10 -11 -12 -13 -14 -15 -16 -17 -18 -19 -20 -21 -22 -23 -24 -25 -26 -27 -28 -29 -30
right_child=3 2 -4 4 5 6 7 8 9 10 11 12 13 14 15 16 17 18 19 20 21 22 23 24 25 26 27 28 29 -31
leaf_value=0.10303833625744281 -0.063526816213706747 0.020234562864774982 -0.012193716823179067 0.14366953501603974 -0.063625061049763856 0.11756422168824293 -0.053653921077477053 0.12382214022348775 -0.053132670433787277 0.12489571418149102 -0.059455357070494111 0.12496773523233047 -0.057242972536539066 0.12472719408480513 -0.058385299164657435 0.12551437807979274 -0.060156055071321317 0.12574467051929303 -0.048525333877227586 0.12550270515842465 -0.060720024759314477 0.12558602885649692 -0.054497585117852368 0.12712367103963249 -0.058972986579934744 0.13219914054782345 -0.066789989103154521 0.14747276560335268 -0.075867431006185607 -0.0068738305573704198
leaf_weight=760.35784620046616 242.47185043245554 9770.2935576587915 1047.2810400724411 57.904762580990791 271.74944560229778 71.499981492757797 351.88357710838318 120.50092349946499 402.23250089585781 143.77399203926325 418.87255501002073 157.05645744130015 466.31293760240078 169.21146317943931 503.10844051092863 174.37455695495009 526.56861943751574 166.33476730808616 629.97471644729376 190.7288751527667 598.78635188937187 192.21272519603372 660.91170907020569 210.0914488658309 639.73147141933441 243.55568744987249 689.41330394148827 267.20161382108927 811.07331494987011 15404.099101759493
leaf_count=14674 1810 59864 5211 281 2033 585 2367 914 2686 1022 2862 1124 3146 1199 3438 1226 3649 1201 4057 1368 4126 1352 4423 1455 4440 1477 4393 1337 4585 76832
internal_value=8.43199e-05 0.0227392 0.0170951 -0.0105 -0.00997606 -0.0103395 -0.00974134 -0.0101184 -0.00947439 -0.0101531 -0.00940998 -0.0102452 -0.00933716 -0.0102728 -0.00928074 -0.0103158 -0.00918594 -0.0102923 -0.00902409 -0.0101156 -0.00890012 -0.0102002 -0.00861795 -0.00998092 -0.00837012 -0.00994674 -0.00814582 -0.0101364 -0.00776674 -0.0103248
internal_weight=36359.6 11577.9 10817.6 24781.6 24539.2 24481.3 24209.5 24138 23786.1 23665.6 23263.4 23119.6 22700.7 22543.7 22077.4 21908.2 21405.1 21230.7 20704.1 20537.8 19907.8 19717.1 19118.3 18926.1 18265.2 18055.1 17415.3 17171.8 16482.4 16215.2
internal_count=219137 79749 65075 139388 137578 137297 135264 134679 132312 131398 128712 127690 124828 123704 120558 119359 115921 114695 111046 109845 105788 104420 100294 98942 94519 93064 88624 87147 82754 81417
is_linear=0
shrinkage=0.1


Tree=23
num_leaves=31
num_cat=0
split_feature=1 1 0 3 3 10 2 2 3 3 3 2 2 2 2 6 6 5 2 3 3 3 3 3 3 3 3 3 3 3
split_gain=737.182 471.411 81.7091 65.8624 62.8477 136.562 113.985 123.202 109.625 222.615 103.122 147.301 101.389 187.78 86.3287 70.7563 64.9159 63.0344 62.9534 62.2423 167.816 63.3301 350.258 94.7122 453.891 161.599 511.114 232.577 624.341 164.508
threshold=-1.5218132033266352 1.0000000180025095e-35 1.0000000180025095e-35 -0.72818778644778892 -0.96361500209803685 0.62619966617464529 -1.2614935802403895 -0.54904781342613829 -0.84562094798924148 -0.84994794590637757 -0.84562094798924148 -0.75073685892719577 -1.2616593678451629 1.0516858263270368 0.71916205514911002 1.0000000180025095e-35 1.0000000180025095e-35 0.69347872296723467 -1.4269479134844461 2.1921170503328793 2.0895560561073876 2.0667112539580335 1.9725541211360138 1.8547142773781349 1.7376574815433712 1.7292198847940512 1.6199450924406174 1.6198645152337641 1.5025044968794139 1.4820037198640412
decision_type=2 2 2 2 2 2 2 2 2 2 2 2 2 2 2 2 2 2 2 2 2 2 2 2 2 2 2 2 2 2
left_child=-1 2 3 4 -2 10 18 -8 9 -9 12 -12 -6 -14 -13 -10 -11 -15 -7 20 21 22 23 24 25 26 27 28 29 -3
right_child=1 19 -4 -5 5 6 7 8 15 16 11 14 13 17 -16 -17 -18 -19 -20 -21 -22 -23 -24 -25 -26 -27 -28 -29 -30 -31
leaf_value=0.10220347599177604 0.015247833948644211 -0.0083419304993931128 -0.011037408803323654 0.023329910947963953 0.042261229711975205 -0.051201027004555692 0.065776271860028379 -0.016174520021917115 0.043138202373867035 -0.40325248972953709 -0.40397650923677997 0.045553721663402436 -0.3008759766939495 0.035539372984953375 -0.33867972036804944 -0.33066602355234165 -0.11022955741279623 -0.36527515629956225 -0.37141172144629275 -0.041352777577830534 0.18574806888324547 -0.076103868054915647 0.2672280090691026 -0.055295020739684501 0.23116219523920578 -0.090571423987221539 0.226902158764658 -0.099885989758008512 0.23106115620263382 -0.080427226182606171
leaf_weight=693.33604282140732 1712.671866491437 21933.620162587613 1041.6101088523865 7150.6705523133278 22.658574968576431 12.971213206648828 265.17100416123867 92.768803313374519 139.76632030308247 24.174749448895454 8.8663989007472974 93.097188457846642 60.422866582870483 32.017551586031914 6.2393177449703208 5.2541623115539542 11.000902339816092 4.471640780568122 11.657672628760336 602.71929356455803 44.250262081623077 140.54013022780418 45.889260411262512 439.60183100402355 78.793541043996811 241.84502832591534 91.944392845034599 280.23209860920906 108.51964963972569 321.22309929132462
leaf_count=14674 10429 127903 5211 44621 138 79 1615 565 851 147 54 567 368 195 38 32 67 27 71 2994 190 667 204 2091 338 1188 396 1383 463 1571
internal_value=9.56611e-05 -0.00192563 0.0155719 0.0184429 0.00448268 -0.0188396 0.00760224 0.0172302 -0.0299297 -0.0973989 -0.0841701 -0.0134379 -0.148178 -0.192703 0.0214201 0.0295951 -0.311612 -0.0135792 -0.202767 -0.00961781 -0.00881165 -0.00917519 -0.00877563 -0.00931469 -0.00843801 -0.00925964 -0.0083947 -0.00935012 -0.00821563 -0.0093824
internal_weight=35718 35024.7 10695.5 9653.88 2503.21 790.538 562.765 538.136 272.965 127.944 227.774 108.203 119.571 96.9121 99.3365 145.02 35.1757 36.4892 24.6289 24329.2 23726.5 23682.2 23541.7 23495.8 23056.2 22977.4 22735.5 22643.6 22363.4 22254.8
internal_count=219137 204463 65075 59864 15243 4814 3427 3277 1662 779 1387 659 728 590 605 883 214 222 150 139388 136394 136204 135537 135333 133242 132904 131716 131320 129937 129474
is_linear=0
shrinkage=0.1


Tree=24
num_leaves=31
num_cat=0
split_feature=1 1 0 2 3 3 3 3 2 2 2 2 2 2 2 2 2 2 2 2 2 2 2 2 2 2 2 2 2 2
split_gain=660.348 387.129 67.3175 60.7425 59.8222 117.525 67.795 101.563 62.787 102.757 62.2219 129.933 71.7613 118.399 73.0036 133.153 74.9002 226.845 122.015 239.585 83.5759 247.433 96.9634 239.264 102.358 249.333 128.852 249.888 69.9553 287.212
threshold=-1.5218132033266352 1.0000000180025095e-35 1.0000000180025095e-35 3.4844259771106176 -1.7846782469200184 -1.6739958850047203 -1.6673845822499063 -1.5501555054544187 -1.5370197479624965 -1.4983043515146159 -1.4819115093128488 -1.4269479134844461 -1.4267326902734008 -1.3719918792744294 -1.3717608853964542 -1.322816088266987 -1.3166967685310096 -1.2616593678451629 -1.2614935802403895 -1.2085294224367817 -1.2064862093865261 -1.1554995796927585 -1.1514417628370752 -1.0981452192475074 -1.0963632842262985 -1.0423528601959846 -1.041282695817574 -0.99099070814874102 -0.98623140589864067 -0.93541950729598555
decision_type=2 2 2 2 2 2 2 2 2 2 2 2 2 2 2 2 2 2 2 2 2 2 2 2 2 2 2 2 2 2
left_child=-1 2 3 -2 -3 -6 -7 -8 -9 -10 -11 -12 -13 -14 -15 -16 -17 -18 -19 -20 -21 -22 -23 -24 -25 -26 -27 -28 -29 -30
right_child=1 4 -4 -5 5 6 7 8 9 10 11 12 13 14 15 16 17 18 19 20 21 22 23 24 25 26 27 28 29 -31
leaf_value=0.10140154120287917 0.017050680619970917 -0.059378084807556013 -0.0099858608339631824 -0.29579252294616953 0.13823136013990606 -0.059477050012258614 0.11576459439353332 -0.06449935906123587 0.15610189535916852 -0.060350618862639704 0.14197055023760041 -0.06535072957439815 0.12790692707123652 -0.067285704117881678 0.12816630426962813 -0.060482955992218201 0.14497598716452123 -0.078992343523435316 0.14399547683585948 -0.063933382108268766 0.14611230798388969 -0.069842079566185031 0.1448055163932834 -0.0717761301031377 0.14592017640445357 -0.078658729975439157 0.14500759880250136 -0.0546607745879642 0.15115523472258163 -0.0079349306534014091
leaf_weight=632.06739321351051 9540.8077473044395 230.77593365311623 1036.4503472596407 6.2104348242282859 54.670445650815964 258.61746605485678 66.121073752641678 197.44792720675468 38.155617848038673 226.04057238996029 57.91234515607357 216.16787407547235 64.429545447230339 204.76432694494724 72.319885924458504 266.07934810966253 97.64216361567378 238.0240303426981 104.57110805436969 261.42139937728643 104.96281571686268 248.97342548519373 103.22351303696632 247.25802575796843 106.00419458374381 253.75279598683119 107.63571186736226 313.16861192882061 114.12797436118126 19963.739123426378
leaf_count=14674 59833 1810 5211 31 281 2033 585 1493 181 1523 343 1599 505 1623 558 1754 660 1755 717 1811 728 1766 724 1779 726 1884 738 2033 722 109057
internal_value=0.000104621 -0.00173514 0.0142194 0.0168472 -0.0087074 -0.00821991 -0.00855446 -0.00799817 -0.00834481 -0.00787119 -0.00813888 -0.00762899 -0.00800423 -0.00746224 -0.00784464 -0.00730616 -0.007741 -0.00711069 -0.00778062 -0.00700766 -0.00773119 -0.00704981 -0.00779901 -0.00707068 -0.00781348 -0.00705526 -0.00783666 -0.00695996 -0.00776213 -0.00703062
internal_weight=35433.5 34801.5 10583.5 9547.02 24218 23987.2 23932.6 23673.9 23607.8 23410.4 23372.2 23146.2 23088.3 22872.1 22807.7 22602.9 22530.6 22264.5 22166.9 21928.8 21824.3 21562.8 21457.9 21208.9 21105.7 20858.4 20752.4 20498.7 20391 20077.9
internal_count=219137 204463 65075 59864 139388 137578 137297 135264 134679 133186 133005 131482 131139 129540 129035 127412 126854 125100 124440 122685 121968 120157 119429 117663 116939 115160 114434 112550 111812 109779
is_linear=0
shrinkage=0.1


Tree=25
num_leaves=31
num_cat=0
split_feature=1 1 10 2 3 3 3 0 2 2 8 2 2 3 3 2 2 5 2 9 3 2 9 2 9 3 2 3 3 3
split_gain=591.808 316.933 62.928 81.9192 91.461 80.9284 75.0473 72.4498 73.5752 93.1475 121.392 87.9826 250.153 80.9226 164.594 63.5537 110.104 112.34 111.682 152.737 99.5683 90.6803 72.8562 68.0774 77.9586 202.231 134.179 79.6925 58.1504 674.958
threshold=-1.5218132033266352 1.0000000180025095e-35 -1.1801900298366721 -1.5370197479624965 -0.023812074186450646 2.912155190456208 -0.61466311796119499 1.0000000180025095e-35 -0.87813103159376327 1.1072015611229966 1.0000000180025095e-35 0.88641929777617301 0.94170084508968011 -0.84562094798924148 -0.96361500209803685 -0.38034321601576548 -0.43553026089028796 0.69347872296723467 -0.54560173705475667 1.0000000180025095e-35 2.1921170503328793 -0.21514267176305146 1.0000000180025095e-35 0.5559796614489021 1.0000000180025095e-35 -0.023812074186450646 0.16194682323286139 1.7292198847940512 1.1467320525554576 1.0329569597953723
decision_type=2 2 2 2 2 2 2 2 2 2 2 2 2 2 2 2 2 2 2 2 2 2 2 2 2 2 2 2 2 2
left_child=-1 2 5 4 6 7 -4 8 -2 10 11 13 -13 14 -10 16 17 -15 19 -19 21 -17 -18 24 27 26 -26 -23 29 -3
right_child=1 28 3 -5 -6 -7 -8 -9 9 -11 -12 12 -14 15 -16 20 22 18 -20 -21 -22 23 -24 -25 25 -27 -28 -29 -30 -31
leaf_value=0.10062334907912107 0.031400202362690831 -0.0074911951109664122 -0.34779981650545172 0.020200990293695112 -0.36810990888351691 -0.44198580581578373 0.034592212802236615 -0.036442092044283801 -0.017805271726401142 0.032562008250165163 -0.30080492105160839 -0.38576440249946858 -0.022180298231914818 0.017862734331054068 -0.20544082108140935 0.074509264465047187 -0.28386616076910859 -0.37670085779401202 0.027837521734083461 -0.015927480091453797 -0.29562152629338961 0.004763469950498915 -0.0023881486059054084 0.049283885102089003 0.066605124187197703 -0.36124700683099475 -0.45960914620400822 -0.37334212779400905 -0.019061815845389976 0.18649889602354436
leaf_weight=576.11834997683764 999.91724079847336 19866.086400855333 6.2754511386156038 6263.5351306647062 10.839992702007292 4.0756509006023398 28.176177352666858 403.31938071548939 322.17490673065186 658.96603246033192 14.30767300724983 23.259777665138245 101.49932503700256 299.26280176639557 54.68555760383606 250.05258697271347 25.98197740316391 25.941980540752411 32.212993204593658 21.427439838647842 10.007356643676756 572.3127672970295 14.232838243246077 264.41753959655762 41.758511036634445 22.047457605600357 5.4818432033061972 5.6291381120681754 3916.6611810848117 180.99072499573231
leaf_count=14674 6324 119196 36 38923 64 25 177 2037 2000 4165 89 144 642 1912 286 1598 166 165 206 137 64 3657 91 1688 267 141 35 36 19408 784
internal_value=0.000107927 -0.00157324 0.0129304 0.019232 -0.114773 0.0034034 -0.0350615 0.00383882 0.00815319 -0.000251711 -0.0105157 -0.00853073 -0.089966 -0.00336726 -0.0450327 0.0065035 -0.026919 -0.0102186 -0.115816 -0.213506 0.018457 0.0211626 -0.184245 0.00653035 -0.0109361 -0.11117 0.00554241 0.00108073 -0.00791716 -0.0057398
internal_weight=35021.7 34445.5 10481.8 6308.83 45.2916 4172.97 34.4516 4168.9 3765.58 2765.66 2106.69 2092.39 124.759 1967.63 376.86 1590.77 419.06 378.845 79.5824 47.3694 1171.71 1161.7 40.2148 911.647 647.23 69.2878 47.2404 577.942 23963.7 20047.1
internal_count=219137 204463 65075 39200 277 25875 213 25850 23813 17489 13324 13235 786 12449 2286 10163 2677 2420 508 302 7486 7422 257 5824 4136 443 302 3693 139388 119980
is_linear=0
shrinkage=0.1


Tree=26
num_leaves=31
num_cat=0
split_feature=1 1 4 10 2 2 8 3 3 3 2 3 0 2 0 9 3 2 2 5 6 2 9 6 3 2 2 3 6 3
split_gain=530.279 260.328 54.5684 50.6125 68.9326 117.92 149.95 75.9465 103.471 93.9442 63.9022 54.2153 54.901 74.9339 54.1539 60.0011 51.4279 80.3489 58.9199 126.687 128.455 83.8368 75.6186 103.517 72.3843 50.2707 186.799 83.9725 50.5459 83.7332
threshold=-1.5218132033266352 1.0000000180025095e-35 1.0000000180025095e-35 -1.1801900298366721 -1.3717608853964542 -1.3719918792744294 1.0000000180025095e-35 -0.023812074186450646 2.1921170503328793 -1.2998741323013043 2.5397399466705028 2.912155190456208 1.0000000180025095e-35 -0.87813103159376327 1.0000000180025095e-35 1.0000000180025095e-35 -1.4326556375419424 1.6575444143874722 -0.38034321601576548 0.69347872296723467 1.0000000180025095e-35 -0.21514267176305146 1.0000000180025095e-35 1.0000000180025095e-35 -0.42311626734063079 0.3908192224517833 0.38517577406130754 -1.3152499135910209 1.0000000180025095e-35 -1.0804454668533403
decision_type=2 2 2 2 2 2 2 2 2 2 2 2 2 2 2 2 2 2 2 2 2 2 2 2 2 2 2 2 2 2
left_child=-1 3 -3 10 5 7 14 9 -9 -5 11 12 13 -2 15 -7 17 -15 19 20 -18 -20 23 -21 -24 26 27 -23 29 -29
right_child=1 2 -4 4 -6 6 -8 8 -10 -11 -12 -13 -14 16 -16 -17 18 -19 21 22 -22 25 24 -25 -26 -27 -28 28 -30 -31
leaf_value=0.099860414543970641 0.028837323533528095 -0.0097666149255691351 0.0015802616253251115 -0.275935795095756 0.019861856356577324 -0.49063394418209977 0.10420785388166701 -0.15763174959680393 0.083609078525743383 0.051435277660456559 0.071649833112067754 -0.33533575251841286 -0.034207269510992414 -0.045587903071588554 -0.093630961005959273 -0.12620569169074222 0.012482243368888738 -0.48513951977420472 0.061141344833720968 -0.25693194407042491 -0.22394753522328281 -0.3664325725292582 -0.44034084837247645 -0.02787698964147722 0.035447859009533476 0.013355484878411997 -0.39488730004369638 0.08690669635795556 0.040030103923162294 -0.04292635151238483
leaf_weight=525.0758103877306 980.93888293206692 18374.942206878215 5508.925603620708 9.2564160078763944 5944.8337044864893 15.587293341755869 13.01782740652561 56.880609199404716 25.863788023591042 165.36774456501007 132.21378235518932 4.7871466428041449 390.92184913158417 166.90739910304546 8.9915940910577792 6.3618262410163871 373.49068512022495 4.2649927586317053 258.89226147532463 52.877546012401581 24.486368253827095 6.7017332762479773 3.4984062761068335 31.474248751997948 37.180150985717773 1055.4311085045338 13.178286641836165 56.653953731060028 149.34874433279037 403.17405021190643
leaf_count=14674 6324 109805 29583 53 37342 98 84 344 166 1028 840 25 2008 1027 45 40 2358 27 1715 290 149 41 20 190 237 6739 78 348 951 2508
internal_value=0.000127123 -0.00140068 -0.0071494 0.0118109 0.0174967 -0.0291645 -0.180531 -0.00331114 -0.082226 0.0340821 0.00324566 0.000992669 0.00139424 0.00524042 -0.300331 -0.385007 -0.00353554 -0.0565399 0.000143073 -0.0296507 -0.00206459 0.00816125 -0.117458 -0.171464 -0.00547056 1.86321e-05 -0.0223579 -0.0143867 -0.0105138 -0.02693
internal_weight=34801.5 34276.5 23883.9 10392.6 6246.16 301.327 43.9585 257.369 82.7444 174.624 4146.42 4014.21 4009.42 3618.5 30.9407 21.9491 2637.56 171.172 2466.39 523.007 397.977 1943.38 125.03 84.3518 40.6786 1684.49 629.057 615.878 609.177 459.828
internal_count=219137 204463 139388 65075 39200 1858 267 1591 510 1081 25875 25035 25010 23002 183 138 16678 1054 15624 3244 2507 12380 737 480 257 10665 3926 3848 3807 2856
is_linear=0
shrinkage=0.1


Tree=27
num_leaves=31
num_cat=0
split_feature=1 1 3 3 3 3 3 3 3 3 3 3 3 3 3 3 3 3 3 3 3 3 3 3 3 3 3 3 3 3
split_gain=475.276 213.545 53.2624 182.693 64.6167 222.046 89.2589 242.799 90.4996 260.628 102.297 271.756 116.043 259.194 81.5289 295.616 136.766 297.508 116.469 332.141 137.596 412.114 200.063 549.226 316.424 1091.14 415.124 1275.34 522.253 1289.48
threshold=-1.5218132033266352 1.0000000180025095e-35 -1.5500573796208397 -1.4327313262162711 -1.4326556375419424 -1.3153605853589425 -1.3152499135910209 -1.1978691209576817 -1.1978499898021486 -1.0804454668533403 -1.0804173928611973 -0.96361500209803685 -0.96296965243119959 -0.84994794590637757 -0.84562094798924148 -0.72828994739413844 -0.72818778644778892 -0.61466311796119499 -0.61079254214949397 -0.49351745098049571 -0.49338620184465004 -0.37604046081772263 -0.37598982039404399 -0.26196135731644415 -0.2585301746939222 -0.14129625041357127 -0.14118260298850002 -0.023812074186450646 -0.023786374659616697 0.088365982034353058
decision_type=2 2 2 2 2 2 2 2 2 2 2 2 2 2 2 2 2 2 2 2 2 2 2 2 2 2 2 2 2 2
left_child=-1 -2 -3 -4 -5 -6 -7 -8 -9 -10 -11 -12 -13 -14 -15 -16 -17 -18 -19 -20 -21 -22 -23 -24 -25 -26 -27 -28 -29 -30
right_child=1 2 3 4 5 6 7 8 9 10 11 12 13 14 15 16 17 18 19 20 21 22 23 24 25 26 27 28 29 -31
leaf_value=0.099104744594468511 0.01077552564705769 -0.030191735203450656 0.12187326222147084 -0.04707183607143374 0.12280276574644351 -0.053449775065287197 0.12289739543262908 -0.051209820847165591 0.12260697308117506 -0.052292758140707496 0.12338752275135485 -0.054148502631149543 0.12374795475232295 -0.042470604747763041 0.12340445501486259 -0.054764334616537957 0.12346703977978629 -0.048424804910658592 0.12498421973025409 -0.052934424884073843 0.1293298598534913 -0.060593734047599081 0.1426165951671052 -0.069086749947178783 0.17496596679439813 -0.077990010798055093 0.18795858063093815 -0.083638157781653705 0.18705084521204607 -0.0081281276615522962
leaf_weight=478.54897500574589 10308.788039505482 909.008051648736 112.03843689709902 379.18819072842598 134.19770330935717 393.0230750888586 146.59175293520093 438.3477121219039 158.10558879747987 472.05845481157303 163.02620664611459 493.31739005446434 155.02544067427516 596.48598604649305 177.82767708227038 561.16690073907375 179.48399166017771 622.44498432427645 196.16704020276666 599.7564479932189 228.03423712402582 645.73426269739866 252.09059473127127 760.63247360289097 336.88250242173672 781.1624670624733 340.91254568099976 852.59644678980112 347.9998383000493 12390.990176871419
leaf_count=14674 65075 7076 914 2686 1022 2862 1124 3146 1199 3438 1226 3649 1201 4057 1368 4126 1352 4423 1455 4440 1477 4393 1337 4585 1480 4519 1479 4562 1523 63269
internal_value=0.000138645 -0.00124887 -0.00645183 -0.00551011 -0.00613598 -0.00544376 -0.00621588 -0.00536808 -0.00623256 -0.00530746 -0.00626351 -0.00521289 -0.00623466 -0.00505432 -0.00605921 -0.00493236 -0.00612746 -0.00465492 -0.00590773 -0.00441534 -0.00586281 -0.00419596 -0.00601824 -0.00382433 -0.00615916 -0.00297889 -0.0070531 -0.00307583 -0.00786748 -0.00279629
internal_weight=34611.6 34133.1 23824.3 22915.3 22803.3 22424.1 22289.9 21896.8 21750.2 21311.9 21153.8 20681.7 20518.7 20025.4 19870.4 19273.9 19096.1 18534.9 18355.4 17733 17536.8 16937 16709 16063.3 15811.2 15050.5 14713.7 13932.5 13591.6 12739
internal_count=219137 204463 139388 132312 131398 128712 127690 124828 123704 120558 119359 115921 114695 111046 109845 105788 104420 100294 98942 94519 93064 88624 87147 82754 81417 76832 75352 70833 69354 64792
is_linear=0
shrinkage=0.1


Tree=28
num_leaves=31
num_cat=0
split_feature=1 1 3 3 3 3 3 3 3 3 3 3 3 3 3 3 3 3 3 3 3 3 3 3 3 3 3 3 3 3
split_gain=426.127 174.909 48.19 103.36 54.5216 90.6031 52.6269 161.015 54.3488 195.447 75.5311 213.7 76.4155 229.411 86.5135 239.094 98.3251 228.178 68.265 260.208 115.888 261.886 98.1141 292.197 116.469 360.892 169.919 475.385 268.993 917.852
